{"learner":{"attributes":{},"feature_names":[],"feature_types":[],"gradient_booster":{"model":{"gbtree_model_param":{"num_parallel_tree":"1","num_trees":"100"},"iteration_indptr":[0,1,2,3,4,5,6,7,8,9,10,11,12,13,14,15,16,17,18,19,20,21,22,23,24,25,26,27,28,29,30,31,32,33,34,35,36,37,38,39,40,41,42,43,44,45,46,47,48,49,50,51,52,53,54,55,56,57,58,59,60,61,62,63,64,65,66,67,68,69,70,71,72,73,74,75,76,77,78,79,80,81,82,83,84,85,86,87,88,89,90,91,92,93,94,95,96,97,98,99,100],"tree_info":[0,0,0,0,0,0,0,0,0,0,0,0,0,0,0,0,0,0,0,0,0,0,0,0,0,0,0,0,0,0,0,0,0,0,0,0,0,0,0,0,0,0,0,0,0,0,0,0,0,0,0,0,0,0,0,0,0,0,0,0,0,0,0,0,0,0,0,0,0,0,0,0,0,0,0,0,0,0,0,0,0,0,0,0,0,0,0,0,0,0,0,0,0,0,0,0,0,0,0,0],"trees":[{"base_weights":[-6.548109E-5,2.0410678E0,-1.9036392E0,-4.9746066E-1,2.0510664E0,8.212294E-2,-1.9043274E0,-5.017411E-1,2.0579262E0,-8.168434E-2,-1.9050148E0,1.2753772E0,2.0787678E0,-5.136786E-2,-1.9054735E0,-1.2527035E-1,1.6958082E0,2.081805E0,-4.708718E-1,-1.9059324E0,-5.136786E-2,1.8071459E-1,-4.4645765E-1,5.410895E-1,-1.3629667E-1,-2.5547898E-1,6.2499833E-1,-4.2994946E-1,3.7706855E-1,-5.7191753E-1,-5.136786E-2],"categories":[],"categories_nodes":[],"categories_segments":[],"categories_sizes":[],"default_left":[0,0,0,0,0,0,0,0,0,0,0,1,1,0,1,1,1,0,0,1,0,0,0,0,0,0,0,0,0,0,0],"id":0,"left_children":[1,3,5,-1,7,-1,9,-1,11,-1,13,15,17,-1,19,21,23,25,27,29,-1,-1,-1,-1,-1,-1,-1,-1,-1,-1,-1],"loss_changes":[3.2632457E4,1.5330469E2,7.0351562E0,0E0,1.0669336E2,0E0,4.3515625E0,0E0,6.3166016E1,0E0,3.1298828E0,6.3383408E1,3.140625E1,0E0,3.1269531E0,2.6381474E1,1.9963501E1,1.930664E1,1.0929852E1,3.1308594E0,0E0,0E0,0E0,0E0,0E0,0E0,0E0,0E0,0E0,0E0,0E0],"parents":[2147483647,0,0,1,1,2,2,4,4,6,6,8,8,10,10,11,11,12,12,14,14,15,15,16,16,17,17,18,18,19,19],"right_children":[2,4,6,-1,8,-1,10,-1,12,-1,14,16,18,-1,20,22,24,26,28,30,-1,-1,-1,-1,-1,-1,-1,-1,-1,-1,-1],"split_conditions":[4.29618E-1,6.1669815E-2,7.450629E-2,-4.9746066E-1,5.941166E-2,8.212294E-2,5.3899746E-2,-5.017411E-1,4.932172E-2,-8.168434E-2,4.166375E-2,2.58241E-2,5.2771933E-2,-5.136786E-2,6.0912173E-2,2.7888518E-2,2.5291074E-2,2.0105759E-2,1.5088926E-1,5.7593018E-2,-5.136786E-2,1.8071459E-1,-4.4645765E-1,5.410895E-1,-1.3629667E-1,-2.5547898E-1,6.2499833E-1,-4.2994946E-1,3.7706855E-1,-5.7191753E-1,-5.136786E-2],"split_indices":[70674,32345,296,0,29139,0,59354,0,89962,0,743,72920,92592,0,2424,84166,8729,92592,13396,32126,0,0,0,0,0,0,0,0,0,0,0],"split_type":[0,0,0,0,0,0,0,0,0,0,0,0,0,0,0,0,0,0,0,0,0,0,0,0,0,0,0,0,0,0,0],"sum_hessian":[8.396635E3,4.051879E3,4.344756E3,1.0477707E1,4.0414011E3,1.247346E0,4.3435083E3,6.985138E0,4.034416E3,1.9957536E0,4.3415127E3,1.0627388E2,3.928142E3,1.247346E0,4.340265E3,2.469745E1,8.157643E1,3.9236516E3,4.4904456E0,4.339018E3,1.247346E0,1.6464968E1,8.232484E0,7.783439E1,3.742038E0,1.7462845E0,3.9219053E3,2.9936304E0,1.4968152E0,4.3377705E3,1.247346E0],"tree_param":{"num_deleted":"0","num_feature":"95005","num_nodes":"31","size_leaf_vector":"1"}},{"base_weights":[-7.0730755E-3,1.5394881E0,-1.5062833E0,-1.314365E0,1.5471132E0,-1.5069573E0,1.1297157E-1,-4.1721123E-1,-1.094666E-1,-4.0286186E-1,1.5523844E0,4.255295E-2,-1.507467E0,9.4087064E-1,1.5695662E0,2.574614E-2,-1.5079563E0,-1.5491148E0,1.1069326E0,1.5719137E0,-3.5881433E-1,-4.9695186E-3,-1.5084662E0,-1.5000378E-1,-5.0195843E-1,3.7110507E-1,-3.126929E-1,-1.7282361E-1,4.7199714E-1,-3.5233507E-1,3.128279E-1,7.220709E-3,-4.5267966E-1],"categories":[],"categories_nodes":[],"categories_segments":[],"categories_sizes":[],"default_left":[0,0,1,1,0,0,0,0,0,0,0,0,0,0,1,0,0,0,1,0,0,0,0,0,0,0,0,0,0,0,0,0,0],"id":1,"left_children":[1,3,5,7,9,11,-1,-1,-1,-1,13,-1,15,17,19,-1,21,23,25,27,29,-1,31,-1,-1,-1,-1,-1,-1,-1,-1,-1,-1],"loss_changes":[1.784847E4,8.448828E1,5.5283203E0,2.6358604E-1,5.965918E1,3.4980469E0,0E0,0E0,0E0,0E0,3.8166016E1,0E0,3.1748047E0,4.5384323E1,1.7169922E1,0E0,2.946289E0,7.7171326E-2,2.9133461E1,1.2004883E1,7.2542596E0,0E0,2.821289E0,0E0,0E0,0E0,0E0,0E0,0E0,0E0,0E0,0E0,0E0],"parents":[2147483647,0,0,1,1,2,2,3,3,4,4,5,5,10,10,12,12,13,13,14,14,16,16,17,17,18,18,19,19,20,20,22,22],"right_children":[2,4,6,8,10,12,-1,-1,-1,-1,14,-1,16,18,20,-1,22,24,26,28,30,-1,32,-1,-1,-1,-1,-1,-1,-1,-1,-1,-1],"split_conditions":[4.29618E-1,6.1669815E-2,7.554122E-2,3.348903E-2,5.941166E-2,4.2350754E-2,1.1297157E-1,-4.1721123E-1,-1.094666E-1,-4.0286186E-1,6.426774E-2,4.255295E-2,3.582087E-2,3.6480606E-2,5.2771933E-2,2.574614E-2,5.664816E-2,2.5263876E-2,2.822482E-2,1.5445867E-2,1.5088926E-1,-4.9695186E-3,6.2278725E-2,-1.5000378E-1,-5.0195843E-1,3.7110507E-1,-3.126929E-1,-1.7282361E-1,4.7199714E-1,-3.5233507E-1,3.128279E-1,7.220709E-3,-4.5267966E-1],"split_indices":[70674,32345,1235,344,29139,74289,0,0,0,0,89962,0,40589,39048,92592,0,15627,23116,2843,14266,13396,0,67877,0,0,0,0,0,0,0,0,0,0],"split_type":[0,0,0,0,0,0,0,0,0,0,0,0,0,0,0,0,0,0,0,0,0,0,0,0,0,0,0,0,0,0,0,0,0],"sum_hessian":[7.695884E3,3.788107E3,3.907777E3,9.637628E0,3.7784692E3,3.9065784E3,1.1986594E0,8.490292E0,1.1473367E0,6.417181E0,3.772052E3,1.1216964E0,3.9054565E3,1.046116E2,3.6674404E3,1.1454763E0,3.9043113E3,6.0198326E0,9.8591774E1,3.663166E3,4.27443E0,1.3460357E0,3.902965E3,1.168644E0,4.8511887E0,9.336523E1,5.2265472E0,2.1357052E0,3.6610303E3,2.8044496E0,1.4699802E0,1.1704494E0,3.9017947E3],"tree_param":{"num_deleted":"0","num_feature":"95005","num_nodes":"33","size_leaf_vector":"1"}},{"base_weights":[-8.693094E-3,1.31643E0,-1.3173504E0,5.6689185E-1,1.3406968E0,1.3158765E-1,-1.3180932E0,8.1922615E-1,-3.9669797E-1,-3.439079E-2,1.3476539E0,1.0464456E-2,-1.3188722E0,9.787029E-1,-7.953226E-1,-1.1536509E0,3.693938E-1,-7.244216E-1,1.3496381E0,-1.3194747E0,5.968075E-2,-1.2376612E0,1.0672116E0,2.719768E-1,-1.3376187E0,-3.8683143E-1,-1.0569532E-2,-2.5505775E-1,-6.0181107E-2,-3.296146E-1,1.3509313E0,-1.3200741E0,2.1144334E-2,-4.1766766E-2,-4.8901692E-1,-1.0027801E-1,3.5881436E-1,-5.2863336E-1,1.2907094E-1,4.0566763E-1,-3.296146E-1,3.5508692E-2,-3.96185E-1],"categories":[],"categories_nodes":[],"categories_segments":[],"categories_sizes":[],"default_left":[0,0,0,1,0,0,0,1,0,0,0,0,1,0,0,1,0,0,0,1,0,1,0,0,0,0,0,0,0,0,1,0,0,0,0,0,0,0,0,0,0,0,0],"id":2,"left_children":[1,3,5,7,9,-1,11,13,-1,15,17,-1,19,21,23,25,-1,27,29,31,-1,33,35,-1,37,-1,-1,-1,-1,-1,39,41,-1,-1,-1,-1,-1,-1,-1,-1,-1,-1,-1],"loss_changes":[1.11634E4,5.741992E1,4.8027344E0,4.9728348E1,2.9678223E1,0E0,3.458496E0,2.4115723E1,0E0,2.4891312E1,1.3649902E1,0E0,3.2211914E0,1.759037E1,9.241771E0,1.3682756E0,0E0,6.657946E-2,1.1234375E1,2.788086E0,0E0,1.345366E0,1.4896797E1,0E0,6.0121765E0,0E0,0E0,0E0,0E0,0E0,1.1243164E1,2.6791992E0,0E0,0E0,0E0,0E0,0E0,0E0,0E0,0E0,0E0,0E0,0E0],"parents":[2147483647,0,0,1,1,2,2,3,3,4,4,6,6,7,7,9,9,10,10,12,12,13,13,14,14,15,15,17,17,18,18,19,19,21,21,22,22,24,24,30,30,31,31],"right_children":[2,4,6,8,10,-1,12,14,-1,16,18,-1,20,22,24,26,-1,28,30,32,-1,34,36,-1,38,-1,-1,-1,-1,-1,40,42,-1,-1,-1,-1,-1,-1,-1,-1,-1,-1,-1],"split_conditions":[4.29618E-1,4.932172E-2,1.4596033E-1,1.19164195E-2,1.6525134E-1,1.3158765E-1,5.3899746E-2,4.4510223E-2,-3.9669797E-1,1.5088926E-1,6.1669815E-2,1.0464456E-2,1.2165637E-1,4.037921E-2,4.7620326E-2,1.122568E-2,3.693938E-1,4.05531E-2,3.613238E-2,1.01402394E-1,5.968075E-2,1.6576888E-2,4.1511543E-2,2.719768E-1,5.6600515E-2,-3.8683143E-1,-1.0569532E-2,-2.5505775E-1,-6.0181107E-2,-3.296146E-1,7.363508E-2,4.2350754E-2,2.1144334E-2,-4.1766766E-2,-4.8901692E-1,-1.0027801E-1,3.5881436E-1,-5.2863336E-1,1.2907094E-1,4.0566763E-1,-3.296146E-1,3.5508692E-2,-3.96185E-1],"split_indices":[70674,89962,7619,39048,92592,0,59354,58905,0,13396,32345,0,66917,404,34145,9761,0,1426,11971,79146,0,344,68818,0,11635,0,0,0,0,0,20874,74289,0,0,0,0,0,0,0,0,0,0,0],"split_type":[0,0,0,0,0,0,0,0,0,0,0,0,0,0,0,0,0,0,0,0,0,0,0,0,0,0,0,0,0,0,0,0,0,0,0,0,0,0,0,0,0,0,0],"sum_hessian":[6.4354575E3,3.1976094E3,3.2378481E3,1.01042336E2,3.096567E3,1.1195979E0,3.2367285E3,8.963638E1,1.1405953E1,1.5567807E1,3.0809993E3,1.8375113E0,3.2348909E3,8.19369E1,7.699481E0,8.30884E0,7.258968E0,2.599385E0,3.0783997E3,3.233738E3,1.152928E0,2.6478586E0,7.928904E1,1.6981959E0,6.001285E0,7.2729244E0,1.0359155E0,1.5936697E0,1.0057154E0,1.1770668E0,3.0772227E3,3.2323943E3,1.3437685E0,1.0535209E0,1.5943378E0,6.5410843E0,7.2747955E1,4.8419085E0,1.1593765E0,3.0760457E3,1.1770668E0,1.1366295E0,3.2312576E3],"tree_param":{"num_deleted":"0","num_feature":"95005","num_nodes":"43","size_leaf_vector":"1"}},{"base_weights":[-9.354042E-3,1.1889224E0,-1.2078671E0,4.6067086E-1,1.2154294E0,1.6192992E-1,-1.2090753E0,-4.775455E-1,8.544114E-1,-3.0024758E-2,1.2220621E0,2.5102162E-1,-1.8622154E-1,-1.2097725E0,7.978774E-2,-1.3991727E0,1.0250298E-1,9.8025334E-1,-7.25387E-1,-1.000365E0,3.2895586E-1,-6.3993454E-1,1.2241142E0,8.134959E-2,-1.2104653E0,-1.58106E0,4.022481E-2,8.9222264E-1,-6.781138E-1,1.1399821E0,-4.3378443E-1,-1.3231434E0,2.4685429E-1,-8.624623E-3,-3.4386623E-1,-6.095229E-2,-2.2673468E-1,-3.277055E-1,1.2256027E0,5.038252E-2,-1.2111627E0,-1.2122899E-1,-5.0493747E-1,3.411962E-1,-1.14503674E-1,1.4935263E-1,-3.162689E-1,3.6578315E-1,-2.7568805E-1,2.5214902E-1,-3.1402686E-1,-9.190959E-2,-4.656209E-1,3.6812776E-1,-3.277055E-1,-3.63695E-1,-8.781506E-2],"categories":[],"categories_nodes":[],"categories_segments":[],"categories_sizes":[],"default_left":[0,0,0,1,0,0,1,0,1,0,0,0,0,0,0,1,1,1,1,0,0,0,0,0,0,0,0,1,1,1,0,0,0,0,0,0,0,0,1,0,1,0,0,0,0,0,0,0,0,0,0,0,0,0,0,0,0],"id":3,"left_children":[1,3,5,7,9,11,13,15,17,19,21,-1,-1,23,-1,25,27,29,31,33,-1,35,37,-1,39,41,-1,43,45,47,49,51,-1,-1,-1,-1,-1,-1,53,-1,55,-1,-1,-1,-1,-1,-1,-1,-1,-1,-1,-1,-1,-1,-1,-1,-1],"loss_changes":[7.413306E3,4.926758E1,4.466797E0,3.4491203E1,2.060498E1,2.1863441E0,2.9731445E0,1.5066647E1,1.3702473E1,1.6582235E1,1.0247559E1,0E0,0E0,2.9726562E0,0E0,3.2381325E0,1.1741101E1,1.4261162E1,6.082608E0,1.1197042E0,0E0,1.7635226E-2,9.870605E0,0E0,2.6801758E0,4.9451065E-1,0E0,3.3726888E0,4.7941775E0,1.0106644E1,6.27766E0,5.199137E-1,0E0,0E0,0E0,0E0,0E0,0E0,9.881592E0,0E0,2.375E0,0E0,0E0,0E0,0E0,0E0,0E0,0E0,0E0,0E0,0E0,0E0,0E0,0E0,0E0,0E0,0E0],"parents":[2147483647,0,0,1,1,2,2,3,3,4,4,5,5,6,6,7,7,8,8,9,9,10,10,13,13,15,15,16,16,17,17,18,18,19,19,21,21,22,22,24,24,25,25,27,27,28,28,29,29,30,30,31,31,38,38,40,40],"right_children":[2,4,6,8,10,12,14,16,18,20,22,-1,-1,24,-1,26,28,30,32,34,-1,36,38,-1,40,42,-1,44,46,48,50,52,-1,-1,-1,-1,-1,-1,54,-1,56,-1,-1,-1,-1,-1,-1,-1,-1,-1,-1,-1,-1,-1,-1,-1,-1],"split_conditions":[4.29618E-1,6.426774E-2,5.217432E-2,2.6696095E-2,1.6525134E-1,1.16803115E-2,9.519551E-2,9.2792764E-2,2.4891801E-2,1.5088926E-1,6.1669815E-2,2.5102162E-1,-1.8622154E-1,4.166375E-2,7.978774E-2,4.4484906E-2,4.703034E-2,1.67849E-2,2.005935E-2,1.2768022E-2,3.2895586E-1,6.147108E-2,3.564524E-2,8.134959E-2,5.664816E-2,3.7299156E-2,4.022481E-2,2.0770121E-2,1.3782936E-2,2.7558636E-2,3.925894E-2,3.6311857E-2,2.4685429E-1,-8.624623E-3,-3.4386623E-1,-6.095229E-2,-2.2673468E-1,-3.277055E-1,8.5140035E-2,5.038252E-2,6.876438E-2,-1.2122899E-1,-5.0493747E-1,3.411962E-1,-1.14503674E-1,1.4935263E-1,-3.162689E-1,3.6578315E-1,-2.7568805E-1,2.5214902E-1,-3.1402686E-1,-9.190959E-2,-4.656209E-1,3.6812776E-1,-3.277055E-1,-3.63695E-1,-8.781506E-2],"split_indices":[70674,89962,81645,72920,92592,1426,20463,57183,8729,13396,32345,0,0,743,0,87783,83739,48144,84280,3077,0,30847,11971,0,15627,65723,0,58437,35811,43441,83981,5208,0,0,0,0,0,0,20874,0,69300,0,0,0,0,0,0,0,0,0,0,0,0,0,0,0,0],"split_type":[0,0,0,0,0,0,0,0,0,0,0,0,0,0,0,0,0,0,0,0,0,0,0,0,0,0,0,0,0,0,0,0,0,0,0,0,0,0,0,0,0,0,0,0,0,0,0,0,0,0,0,0,0,0,0,0,0],"sum_hessian":[5.15993E3,2.5802239E3,2.5797065E3,9.1262886E1,2.4889612E3,2.1561935E0,2.5775503E3,2.6915358E1,6.4347534E1,1.3166017E1,2.4757952E3,1.120782E0,1.0354115E0,2.5765125E3,1.037779E0,9.851054E0,1.7064304E1,5.9951485E1,4.3960457E0,7.1335735E0,6.032443E0,2.3833733E0,2.4734116E3,1.0222656E0,2.5754902E3,8.778498E0,1.0725563E0,8.411622E0,8.652681E0,5.4040874E1,5.9106097E0,3.2764356E0,1.1196101E0,1.0873445E0,6.046229E0,1.0769484E0,1.306425E0,1.1177127E0,2.472294E3,1.1812015E0,2.574309E3,1.0962514E0,7.682246E0,7.1442804E0,1.267341E0,2.0183885E0,6.634293E0,5.24295E1,1.611377E0,1.7991819E0,4.111428E0,1.0318289E0,2.2446067E0,2.4711763E3,1.1177127E0,2.570759E3,3.5499823E0],"tree_param":{"num_deleted":"0","num_feature":"95005","num_nodes":"57","size_leaf_vector":"1"}},{"base_weights":[-9.748595E-3,1.1061399E0,-1.1373088E0,3.843419E-1,1.1349958E0,-5.115137E-1,-1.1415071E0,5.7145643E-1,-1.0720264E0,-2.6825372E-2,1.1415772E0,-8.0445915E-1,5.2744824E-1,6.866321E-2,-1.1427473E0,7.5964737E-1,-4.441136E-1,-3.377545E-1,-9.296924E-2,-8.8264626E-1,2.994396E-1,1.1435894E0,-2.99999E-1,-9.9050266E-1,2.3985559E-1,6.615688E-2,-1.1442125E0,9.2618346E-1,-4.2410707E-1,-1.0153613E0,7.210206E-1,-3.124953E-1,1.1451939E-2,-3.105458E-1,1.1455005E0,-3.843739E-2,-3.172291E-1,-1.9330516E-1,2.4103718E-1,9.054667E-2,-1.1450939E0,3.04715E-1,-2.28837E-1,-3.708684E-1,2.4649574E-1,-4.220604E-1,-4.2279277E-2,2.793511E-1,-2.643867E-4,3.4426698E-1,-2.6851463E-1,-3.4382015E-1,3.0728117E-2],"categories":[],"categories_nodes":[],"categories_segments":[],"categories_sizes":[],"default_left":[0,0,0,1,0,1,0,1,0,0,1,1,0,0,0,1,1,0,0,0,0,0,0,0,0,1,0,1,1,1,1,0,0,0,1,0,0,0,0,0,1,0,0,0,0,0,0,0,0,0,0,0,0],"id":4,"left_children":[1,3,5,7,9,11,13,15,17,19,21,23,-1,-1,25,27,29,-1,-1,31,-1,33,-1,35,-1,37,39,41,43,45,47,-1,-1,-1,49,-1,-1,-1,-1,-1,51,-1,-1,-1,-1,-1,-1,-1,-1,-1,-1,-1,-1],"loss_changes":[5.088139E3,4.1896484E1,4.7004395E0,2.2315725E1,1.4969971E1,1.1531532E1,3.6557617E0,1.3950352E1,3.7306786E-2,1.1391886E1,9.515625E0,5.0182743E0,0E0,0E0,3.6101074E0,1.2311882E1,8.563575E0,0E0,0E0,1.073566E0,0E0,9.270264E0,0E0,6.2277794E-1,0E0,2.2783973E0,2.8862305E0,8.83746E0,9.253815E0,2.6468391E0,6.767914E-1,0E0,0E0,0E0,9.166992E0,0E0,0E0,0E0,0E0,0E0,2.536377E0,0E0,0E0,0E0,0E0,0E0,0E0,0E0,0E0,0E0,0E0,0E0,0E0],"parents":[2147483647,0,0,1,1,2,2,3,3,4,4,5,5,6,6,7,7,8,8,9,9,10,10,11,11,14,14,15,15,16,16,19,19,21,21,23,23,25,25,26,26,27,27,28,28,29,29,30,30,34,34,40,40],"right_children":[2,4,6,8,10,12,14,16,18,20,22,24,-1,-1,26,28,30,-1,-1,32,-1,34,-1,36,-1,38,40,42,44,46,48,-1,-1,-1,50,-1,-1,-1,-1,-1,52,-1,-1,-1,-1,-1,-1,-1,-1,-1,-1,-1,-1],"split_conditions":[4.29618E-1,6.426774E-2,3.7684448E-2,1.19164195E-2,1.6525134E-1,1.6349332E-2,5.3899746E-2,5.6653183E-2,6.146658E-2,1.5088926E-1,2.1945399E-1,2.4344597E-2,5.2744824E-1,6.866321E-2,7.90972E-2,2.3498034E-2,8.929795E-3,-3.377545E-1,-9.296924E-2,9.540416E-2,2.994396E-1,6.677335E-2,-2.99999E-1,3.9964534E-2,2.3985559E-1,1.7190857E-2,4.2350754E-2,3.1597283E-2,2.110533E-2,1.7645868E-2,2.158432E-2,-3.124953E-1,1.1451939E-2,-3.105458E-1,1.8671863E-1,-3.843739E-2,-3.172291E-1,-1.9330516E-1,2.4103718E-1,9.054667E-2,6.406345E-2,3.04715E-1,-2.28837E-1,-3.708684E-1,2.4649574E-1,-4.220604E-1,-4.2279277E-2,2.793511E-1,-2.643867E-4,3.4426698E-1,-2.6851463E-1,-3.4382015E-1,3.0728117E-2],"split_indices":[70674,89962,58399,39048,92592,6395,59354,41338,59685,13396,85569,7459,0,0,28416,2856,81095,0,0,57183,0,69603,0,893,0,7421,74289,2843,88284,93848,38796,0,0,0,64440,0,0,0,0,0,1087,0,0,0,0,0,0,0,0,0,0,0,0],"split_type":[0,0,0,0,0,0,0,0,0,0,0,0,0,0,0,0,0,0,0,0,0,0,0,0,0,0,0,0,0,0,0,0,0,0,0,0,0,0,0,0,0,0,0,0,0,0,0,0,0,0,0,0,0],"sum_hessian":[4.0418818E3,2.0314646E3,2.0104171E3,7.864219E1,1.9528224E3,1.421628E1,1.9962009E3,7.022702E1,8.415171E0,1.0982593E1,1.9418398E3,1.3162913E1,1.0533669E0,1.6388595E0,1.994562E3,5.9460625E1,1.0766394E1,7.414325E0,1.0008452E0,6.060789E0,4.9218035E0,1.9404825E3,1.3572285E0,1.2137563E1,1.0253507E0,2.3610091E0,1.992201E3,5.2317886E1,7.1427355E0,7.3106422E0,3.4557517E0,5.056435E0,1.0043539E0,1.2268409E0,1.9392557E3,1.0840245E0,1.1053537E1,1.2665513E0,1.094458E0,1.0056416E0,1.9911953E3,5.0062664E1,2.2552235E0,4.3285613E0,2.8141742E0,4.629148E0,2.6814942E0,2.452059E0,1.0036927E0,1.937741E3,1.5147333E0,1.9897244E3,1.4709495E0],"tree_param":{"num_deleted":"0","num_feature":"95005","num_nodes":"53","size_leaf_vector":"1"}},{"base_weights":[-1.0251611E-2,1.0448506E0,-1.0885154E0,3.158032E-1,1.077392E0,-4.176399E-1,-1.0935861E0,-4.1041246E-1,6.562759E-1,4.3859717E-1,1.090967E0,-7.2303045E-1,4.3731976E-1,5.48118E-2,-1.0951056E0,-1.1333009E0,8.14306E-2,7.849159E-1,-6.3643646E-1,-6.764718E-1,6.1313283E-1,1.0956097E0,-3.1964618E-1,-9.4350195E-1,1.8930061E-1,-1.096814E0,8.370482E-2,-1.2830299E0,-1.1183436E-3,-2.8406987E-1,5.039186E-1,9.379317E-1,-3.2430843E-1,9.190758E-2,-3.7598684E-1,-3.7717354E-1,7.405367E-1,-2.4668297E-1,1.0982072E0,-6.243971E-1,2.2144651E-1,-3.0172294E-1,-5.2711386E-2,-1.0986981E0,-9.201085E-4,-1.796122E-1,2.268851E-1,-4.0741223E-1,-1.1370319E-1,3.2050785E-1,-1.7472579E-1,3.051989E-1,-2.4886253E-1,-2.6535356E-1,1.8898636E-1,-2.2739816E-1,2.6577896E-1,3.3011445E-1,-2.5874847E-1,-3.2998776E-1,8.675751E-2,-2.0751847E-1,2.504223E-1],"categories":[],"categories_nodes":[],"categories_segments":[],"categories_sizes":[],"default_left":[0,0,0,1,0,1,0,0,1,0,1,1,0,0,1,1,0,1,0,0,0,0,0,1,0,1,0,0,0,0,1,1,0,0,0,0,0,0,1,0,0,0,0,1,0,0,0,0,0,0,0,0,0,0,0,0,0,0,0,0,0,0,0],"id":5,"left_children":[1,3,5,7,9,11,13,15,17,19,21,23,-1,-1,25,27,29,31,33,-1,35,37,39,41,-1,43,45,47,-1,-1,49,51,53,-1,-1,-1,55,-1,57,-1,-1,-1,-1,59,61,-1,-1,-1,-1,-1,-1,-1,-1,-1,-1,-1,-1,-1,-1,-1,-1,-1,-1],"loss_changes":[3.557496E3,3.7155396E1,4.804077E0,1.7316597E1,1.2637573E1,8.624879E0,3.1760254E0,8.135399E0,8.369242E0,1.696491E1,1.0045166E1,4.188532E0,0E0,0E0,3.1782227E0,1.5557022E0,6.7312593E0,7.685438E0,3.1959975E0,0E0,8.536196E0,8.255005E0,1.2028583E1,3.3709908E-1,0E0,3.1590576E0,1.8971945E0,3.752613E-2,0E0,0E0,7.2787766E0,6.243061E0,3.7727048E0,0E0,0E0,0E0,7.318735E0,0E0,7.2333984E0,0E0,0E0,0E0,0E0,2.9920654E0,2.6715038E0,0E0,0E0,0E0,0E0,0E0,0E0,0E0,0E0,0E0,0E0,0E0,0E0,0E0,0E0,0E0,0E0,0E0,0E0],"parents":[2147483647,0,0,1,1,2,2,3,3,4,4,5,5,6,6,7,7,8,8,9,9,10,10,11,11,14,14,15,15,16,16,17,17,18,18,20,20,21,21,22,22,23,23,25,25,26,26,27,27,30,30,31,31,32,32,36,36,38,38,43,43,44,44],"right_children":[2,4,6,8,10,12,14,16,18,20,22,24,-1,-1,26,28,30,32,34,-1,36,38,40,42,-1,44,46,48,-1,-1,50,52,54,-1,-1,-1,56,-1,58,-1,-1,-1,-1,60,62,-1,-1,-1,-1,-1,-1,-1,-1,-1,-1,-1,-1,-1,-1,-1,-1,-1,-1],"split_conditions":[4.29618E-1,6.426774E-2,3.7684448E-2,2.6696095E-2,8.881612E-2,2.474514E-2,5.3899746E-2,9.2792764E-2,2.4891801E-2,9.3124725E-2,2.0155307E-2,2.443811E-2,4.3731976E-1,5.48118E-2,2.1012774E-2,3.0533243E-2,3.7620317E-2,1.67849E-2,1.5769025E-2,-6.764718E-1,6.8133265E-2,3.041716E-2,7.149172E-2,4.1690767E-2,1.8930061E-1,6.876438E-2,1.1042196E-1,1.1754635E-1,-1.1183436E-3,-2.8406987E-1,1.0503528E-2,3.783493E-2,5.0013505E-2,9.190758E-2,-3.7598684E-1,-3.7717354E-1,8.505305E-2,-2.4668297E-1,8.5140035E-2,-6.243971E-1,2.2144651E-1,-3.0172294E-1,-5.2711386E-2,5.4825313E-2,4.4411413E-2,-1.796122E-1,2.268851E-1,-4.0741223E-1,-1.1370319E-1,3.2050785E-1,-1.7472579E-1,3.051989E-1,-2.4886253E-1,-2.6535356E-1,1.8898636E-1,-2.2739816E-1,2.6577896E-1,3.3011445E-1,-2.5874847E-1,-3.2998776E-1,8.675751E-2,-2.0751847E-1,2.504223E-1],"split_indices":[70674,89962,58399,72920,68308,6395,59354,57183,8729,15893,28626,89068,0,0,28416,87783,28626,48144,70674,0,93934,33605,39048,344,0,69300,37087,83739,0,0,2856,75378,72920,0,0,0,92592,0,20874,0,0,0,0,9820,3077,0,0,0,0,0,0,0,0,0,0,0,0,0,0,0,0,0,0],"split_type":[0,0,0,0,0,0,0,0,0,0,0,0,0,0,0,0,0,0,0,0,0,0,0,0,0,0,0,0,0,0,0,0,0,0,0,0,0,0,0,0,0,0,0,0,0,0,0,0,0,0,0,0,0,0,0,0,0,0,0,0,0,0,0],"sum_hessian":[3.124979E3,1.5794689E3,1.5455101E3,6.794559E1,1.5115232E3,1.2219167E1,1.533291E3,2.162176E1,4.632383E1,3.2146015E1,1.4793772E3,1.1036427E1,1.1827402E0,1.6817055E0,1.5316093E3,8.226555E0,1.3395205E1,4.2488537E1,3.8352923E0,1.2308956E0,3.091512E1,1.4747468E3,4.630382E0,9.751777E0,1.2846503E0,1.5294623E3,2.14701E0,7.1437683E0,1.0827863E0,3.5393145E0,9.85589E0,3.7473545E1,5.0149918E0,1.715968E0,2.1193242E0,1.405991E0,2.9509129E1,1.567907E0,1.473179E3,1.3741906E0,3.2561913E0,8.733862E0,1.0179148E0,1.5268347E3,2.627503E0,1.1202326E0,1.0267775E0,6.132685E0,1.0110834E0,6.4968157E0,3.3590744E0,3.6268707E1,1.2048384E0,3.2059953E0,1.8089966E0,2.2372231E0,2.7271906E1,1.4719855E3,1.1934885E0,1.525656E3,1.1787329E0,1.53271E0,1.0947928E0],"tree_param":{"num_deleted":"0","num_feature":"95005","num_nodes":"63","size_leaf_vector":"1"}},{"base_weights":[-1.1220685E-2,9.9570835E-1,-1.052348E0,2.599785E-1,1.0319756E0,-3.3935648E-1,-1.0585291E0,-3.664086E-1,5.658302E-1,-1.9050275E-1,1.0410502E0,-6.641049E-1,3.6087504E-1,-1.0609812E0,1.7266776E-1,2.229048E-1,-8.15798E-1,6.8375504E-1,-8.4033126E-1,-8.387905E-1,2.524055E-1,-3.0271998E-1,1.0452826E0,1.8915513E-1,-8.8406026E-1,1.2404395E-1,-1.0626199E0,-1.7239675E-1,2.6163146E-1,-6.649812E-1,7.917756E-1,7.8752324E-2,-9.6042156E-1,7.854079E-1,-3.5700506E-1,-3.8830748E-1,3.1689625E-2,-2.9550865E-1,-1.3976687E-2,-2.7635407E-1,1.0492951E0,-2.920872E-1,-2.4373E-2,1.0633992E-1,-1.0643104E0,1.9512482E-2,-2.9088348E-1,2.8124154E-1,9.055345E-3,-3.2975486E-1,3.3838175E-2,2.6525345E-1,-2.0276462E-1,3.15808E-1,-3.0236554E-1,-3.1977966E-1,1.1314843E-1],"categories":[],"categories_nodes":[],"categories_segments":[],"categories_sizes":[],"default_left":[0,0,0,1,0,1,1,1,1,0,0,0,0,0,0,0,0,1,0,1,0,0,0,0,1,0,0,0,0,0,1,0,1,1,0,0,0,0,0,0,1,0,0,0,1,0,0,0,0,0,0,0,0,0,0,0,0],"id":6,"left_children":[1,3,5,7,9,11,13,15,17,19,21,23,-1,25,27,29,31,33,35,37,-1,-1,39,-1,41,-1,43,-1,-1,45,47,-1,49,51,-1,-1,-1,-1,-1,-1,53,-1,-1,-1,55,-1,-1,-1,-1,-1,-1,-1,-1,-1,-1,-1,-1],"loss_changes":[2.5146711E3,3.2268555E1,4.838135E0,1.1438195E1,1.3086304E1,6.6126637E0,3.7113037E0,5.4360433E0,7.171301E0,6.99753E0,1.1062378E1,3.4713793E0,0E0,3.2581787E0,2.1648886E0,5.2587204E0,2.040975E0,8.030836E0,1.651434E0,6.813264E-1,0E0,0E0,1.0052002E1,0E0,5.7976913E-1,0E0,3.1694336E0,0E0,0E0,9.9757063E-1,6.559799E-1,0E0,1.6621723E0,5.7849846E0,0E0,0E0,0E0,0E0,0E0,0E0,9.097534E0,0E0,0E0,0E0,3.1239014E0,0E0,0E0,0E0,0E0,0E0,0E0,0E0,0E0,0E0,0E0,0E0,0E0],"parents":[2147483647,0,0,1,1,2,2,3,3,4,4,5,5,6,6,7,7,8,8,9,9,10,10,11,11,13,13,14,14,15,15,16,16,17,17,18,18,19,19,22,22,24,24,26,26,29,29,30,30,32,32,33,33,40,40,44,44],"right_children":[2,4,6,8,10,12,14,16,18,20,22,24,-1,26,28,30,32,34,36,38,-1,-1,40,-1,42,-1,44,-1,-1,46,48,-1,50,52,-1,-1,-1,-1,-1,-1,54,-1,-1,-1,56,-1,-1,-1,-1,-1,-1,-1,-1,-1,-1,-1,-1],"split_conditions":[4.29618E-1,6.426774E-2,3.7684448E-2,2.6696095E-2,1.6525134E-1,5.183852E-2,4.261687E-2,4.5123693E-2,2.7558636E-2,1.5088926E-1,8.443734E-2,1.0285747E-2,3.6087504E-1,5.023199E-2,4.4865742E-2,2.4387563E-2,1.2652316E-2,3.6064588E-2,1.1325798E-1,1.4008137E-2,2.524055E-1,-3.0271998E-1,3.5777614E-2,1.8915513E-1,1.2515179E-2,1.2404395E-1,4.6365436E-2,-1.7239675E-1,2.6163146E-1,5.5101138E-2,1.874457E-2,7.8752324E-2,2.787314E-2,2.8137388E-2,-3.5700506E-1,-3.8830748E-1,3.1689625E-2,-2.9550865E-1,-1.3976687E-2,-2.7635407E-1,6.6823296E-2,-2.920872E-1,-2.4373E-2,1.0633992E-1,6.1050683E-2,1.9512482E-2,-2.9088348E-1,2.8124154E-1,9.055345E-3,-3.2975486E-1,3.3838175E-2,2.6525345E-1,-2.0276462E-1,3.15808E-1,-3.0236554E-1,-3.1977966E-1,1.1314843E-1],"split_indices":[70674,89962,58399,72920,92592,65429,61660,83739,43441,13396,2258,84166,0,39361,3077,12150,91191,6580,79768,19875,0,0,32345,0,2697,0,3964,0,0,60667,40910,0,34157,50951,0,0,0,0,0,0,69722,0,0,0,45648,0,0,0,0,0,0,0,0,0,0,0,0],"split_type":[0,0,0,0,0,0,0,0,0,0,0,0,0,0,0,0,0,0,0,0,0,0,0,0,0,0,0,0,0,0,0,0,0,0,0,0,0,0,0,0,0,0,0,0,0,0,0,0,0,0,0,0,0,0,0,0,0],"sum_hessian":[2.3967146E3,1.2183895E3,1.178325E3,5.7621883E1,1.1607676E3,1.0607849E1,1.1677172E3,1.8839802E1,3.878208E1,8.405664E0,1.1523619E3,9.233086E0,1.3747638E0,1.1655342E3,2.1829154E0,8.368988E0,1.0470814E1,3.6255344E1,2.5267365E0,5.2772236E0,3.1284409E0,1.8849987E0,1.1504769E3,1.0698067E0,8.163279E0,1.0150595E0,1.1645192E3,1.1415802E0,1.0413353E0,3.202156E0,5.1668324E0,1.1418833E0,9.32893E0,3.4940643E1,1.3147033E0,1.4584422E0,1.0682942E0,4.2493906E0,1.0278333E0,1.8772194E0,1.1485997E3,7.152566E0,1.0107125E0,1.1389024E0,1.1633802E3,1.1743673E0,2.0277889E0,4.1432667E0,1.0235658E0,8.239419E0,1.0895108E0,3.3098415E1,1.8422254E0,1.147193E3,1.4067318E0,1.1623331E3,1.0471166E0],"tree_param":{"num_deleted":"0","num_feature":"95005","num_nodes":"57","size_leaf_vector":"1"}},{"base_weights":[-1.2041424E-2,9.522185E-1,-1.0227226E0,2.0269154E-1,9.942227E-1,-2.713217E-1,-1.0302998E0,3.5745633E-1,-2.7797535E-1,1.728418E-1,1.0144633E0,-7.0314467E-1,6.8301284E-1,9.350703E-2,-1.033355E0,5.049344E-1,-6.9632727E-1,7.087897E-1,-8.7263256E-1,1.0210456E0,-5.5624545E-1,-2.7498648E-1,1.0405061E-1,4.277328E-1,-1.1596646E-1,-1.036555E0,2.1248426E-1,-1.2050418E-1,8.2172173E-1,-9.7128594E-1,8.412288E-2,-5.151421E-1,2.909065E-1,5.94445E-1,-1.781466E0,1.0253667E0,-3.184009E-1,-5.9556484E-1,1.7362045E-1,9.708427E-2,-1.0393107E0,2.8013343E-1,-1.73592E-1,-2.4624313E-1,8.397453E-2,2.85594E-1,-1.3623703E-1,-5.233416E-2,-3.4313935E-1,1.2082997E-1,-3.7473702E-1,4.5770798E-2,2.0888871E-1,-7.519588E-1,1.2190929E-1,3.0869478E-1,-2.8309804E-1,-3.1246758E-1,1.0112627E-1],"categories":[],"categories_nodes":[],"categories_segments":[],"categories_sizes":[],"default_left":[0,0,0,1,0,1,0,1,0,1,1,1,0,0,1,0,1,0,0,1,0,0,0,0,0,0,1,1,1,0,0,1,0,0,1,1,0,0,0,0,1,0,0,0,0,0,0,0,0,0,0,0,0,0,0,0,0,0,0],"id":7,"left_children":[1,3,5,7,9,11,13,15,-1,17,19,21,23,-1,25,27,29,31,33,35,37,-1,-1,-1,-1,39,41,43,45,47,-1,49,-1,51,53,55,-1,-1,-1,-1,57,-1,-1,-1,-1,-1,-1,-1,-1,-1,-1,-1,-1,-1,-1,-1,-1,-1,-1],"loss_changes":[1.7872566E3,2.934607E1,4.8184814E0,9.255146E0,1.4595398E1,4.7235575E0,3.9551392E0,7.4425993E0,0E0,1.3266195E1,9.53064E0,2.0173385E0,3.5024192E0,0E0,3.7457886E0,8.144268E0,1.8896458E0,5.4408026E0,1.1856274E1,8.859192E0,8.066115E0,0E0,0E0,0E0,0E0,3.6430664E0,2.3067205E0,4.3025813E0,4.932968E0,4.7722912E-1,0E0,2.77494E0,0E0,6.692219E-2,9.347578E0,7.1105957E0,0E0,0E0,0E0,0E0,3.0758667E0,0E0,0E0,0E0,0E0,0E0,0E0,0E0,0E0,0E0,0E0,0E0,0E0,0E0,0E0,0E0,0E0,0E0,0E0],"parents":[2147483647,0,0,1,1,2,2,3,3,4,4,5,5,6,6,7,7,9,9,10,10,11,11,12,12,14,14,15,15,16,16,17,17,18,18,19,19,20,20,25,25,26,26,27,27,28,28,29,29,31,31,33,33,34,34,35,35,40,40],"right_children":[2,4,6,8,10,12,14,16,-1,18,20,22,24,-1,26,28,30,32,34,36,38,-1,-1,-1,-1,40,42,44,46,48,-1,50,-1,52,54,56,-1,-1,-1,-1,58,-1,-1,-1,-1,-1,-1,-1,-1,-1,-1,-1,-1,-1,-1,-1,-1,-1,-1],"split_conditions":[4.29618E-1,6.426774E-2,3.7684448E-2,1.19164195E-2,8.881612E-2,1.8657824E-2,4.2293306E-2,4.4510223E-2,-2.7797535E-1,1.8039871E-2,2.0155307E-2,3.4020357E-2,2.3871168E-2,9.350703E-2,6.876438E-2,9.2792764E-2,1.7442292E-2,2.4035208E-2,2.1556633E-2,2.1945399E-1,7.149172E-2,-2.7498648E-1,1.0405061E-1,4.277328E-1,-1.1596646E-1,5.3899746E-2,1.2444923E-2,2.6696095E-2,2.531299E-2,7.464326E-2,8.412288E-2,3.375752E-2,2.909065E-1,1.4830782E-2,5.1239256E-2,1.4850777E-1,-3.184009E-1,-5.9556484E-1,1.7362045E-1,9.708427E-2,4.6356086E-2,2.8013343E-1,-1.73592E-1,-2.4624313E-1,8.397453E-2,2.85594E-1,-1.3623703E-1,-5.233416E-2,-3.4313935E-1,1.2082997E-1,-3.7473702E-1,4.5770798E-2,2.0888871E-1,-7.519588E-1,1.2190929E-1,3.0869478E-1,-2.8309804E-1,-3.1246758E-1,1.0112627E-1],"split_indices":[70674,89962,58399,39048,68308,70149,71042,58905,0,54751,28626,57144,25197,0,69300,57183,78392,72920,23277,85569,39048,0,0,0,0,59354,7215,72920,2843,20211,0,84166,0,11534,59685,36883,0,0,0,0,60543,0,0,0,0,0,0,0,0,0,0,0,0,0,0,0,0,0,0],"split_type":[0,0,0,0,0,0,0,0,0,0,0,0,0,0,0,0,0,0,0,0,0,0,0,0,0,0,0,0,0,0,0,0,0,0,0,0,0,0,0,0,0,0,0,0,0,0,0,0,0,0,0,0,0,0,0,0,0,0,0],"sum_hessian":[1.8319133E3,9.37516E2,8.943974E2,5.0060375E1,8.874556E2,9.296685E0,8.851007E2,4.462771E1,5.4326653E0,2.1572258E1,8.6588336E2,6.581747E0,2.7149384E0,1.7809858E0,8.833197E2,3.960569E1,5.022019E0,1.4474266E1,7.0979915E0,8.6261835E2,3.2649977E0,5.5752287E0,1.0065184E0,1.4057049E0,1.3092335E0,8.8122424E2,2.095508E0,1.3524215E1,2.6081476E1,3.9231915E0,1.0988271E0,2.372037E0,1.2102229E1,2.847447E0,4.250544E0,8.613386E2,1.2797399E0,1.1136999E0,2.1512976E0,1.5463035E0,8.796779E2,1.0018085E0,1.0936995E0,4.537884E0,8.98633E0,2.3895676E1,2.1857996E0,1.0561254E0,2.8670664E0,1.2544695E0,1.1175675E0,1.0013022E0,1.8461448E0,3.0831103E0,1.167434E0,8.602363E2,1.1022767E0,8.784865E2,1.1914092E0],"tree_param":{"num_deleted":"0","num_feature":"95005","num_nodes":"59","size_leaf_vector":"1"}},{"base_weights":[-1.2814879E-2,-9.912869E-1,9.171544E-1,-1.690528E-1,-1.0014322E0,9.554738E-1,1.2768591E-2,2.477512E-1,-5.106009E-1,-1.0057188E0,1.2771146E-1,1.7729843E-1,9.779458E-1,2.3950905E-1,-8.803258E-1,2.4668792E-1,-2.585341E-1,3.3482036E-1,-1.0103066E0,5.438481E-1,-9.3743885E-1,-3.295826E-1,9.834118E-1,4.6478143E-1,-7.901282E-1,-3.226841E-1,-1.5933512E-2,-1.5788935E-1,2.7732787E-1,2.3258768E-1,-7.96375E-2,-1.0145978E0,1.0602266E-1,-7.256967E-1,8.8247377E-1,1.2853383E-1,-1.7599976E0,9.891451E-1,-3.0469137E-1,6.882659E-1,-7.467671E-1,-1.3742459E-2,-3.7661976E-1,1.4628395E-1,-3.0535626E-1,8.6325355E-2,-4.1824174E-1,2.9398453E-1,-4.512128E-2,-6.556688E-1,-1.2859114E-1,-3.397452E-1,2.9829705E-1,-1.5043812E-1,2.5089905E-1,6.417124E-2,-3.5486323E-1],"categories":[],"categories_nodes":[],"categories_segments":[],"categories_sizes":[],"default_left":[1,0,1,0,1,0,1,0,0,0,0,1,0,1,1,0,0,0,1,0,0,0,1,1,0,0,0,0,0,0,0,0,0,1,1,0,1,0,0,0,1,0,0,0,0,0,0,0,0,0,0,0,0,0,0,0,0],"id":8,"left_children":[1,3,5,7,9,11,13,-1,15,17,-1,19,21,23,25,27,-1,29,31,33,35,-1,37,39,41,-1,-1,-1,-1,-1,-1,43,-1,45,47,-1,49,51,-1,53,55,-1,-1,-1,-1,-1,-1,-1,-1,-1,-1,-1,-1,-1,-1,-1,-1],"loss_changes":[1.2750134E3,5.526367E0,2.4884644E1,3.6583357E0,4.5529785E0,1.1878723E1,6.329536E0,0E0,2.262692E0,4.4744873E0,0E0,8.912926E0,8.680908E0,6.139009E0,9.6574974E-1,2.1732678E0,0E0,1.0109006E0,4.2821655E0,7.5657477E0,6.884095E0,0E0,8.665283E0,6.2125673E0,1.6177123E0,0E0,0E0,0E0,0E0,0E0,0E0,3.767212E0,0E0,3.0707765E0,1.4731741E0,0E0,1.103509E0,8.4539795E0,0E0,3.6411352E0,1.8271692E0,0E0,0E0,0E0,0E0,0E0,0E0,0E0,0E0,0E0,0E0,0E0,0E0,0E0,0E0,0E0,0E0],"parents":[2147483647,0,0,1,1,2,2,3,3,4,4,5,5,6,6,8,8,9,9,11,11,12,12,13,13,14,14,15,15,17,17,18,18,19,19,20,20,22,22,23,23,24,24,31,31,33,33,34,34,36,36,37,37,39,39,40,40],"right_children":[2,4,6,8,10,12,14,-1,16,18,-1,20,22,24,26,28,-1,30,32,34,36,-1,38,40,42,-1,-1,-1,-1,-1,-1,44,-1,46,48,-1,50,52,-1,54,56,-1,-1,-1,-1,-1,-1,-1,-1,-1,-1,-1,-1,-1,-1,-1,-1],"split_conditions":[6.5068356E-3,3.7684448E-2,1.6415207E-2,3.0159656E-2,3.475264E-2,8.881612E-2,1.79101E-2,2.477512E-1,4.287292E-2,7.2581396E-2,1.2771146E-1,3.0799069E-2,3.041716E-2,2.6005823E-2,4.3725327E-2,3.9915785E-2,-2.585341E-1,1.8796347E-2,4.261687E-2,6.9861256E-2,5.7750817E-2,-3.295826E-1,6.1364315E-2,1.9308066E-2,2.4756967E-1,-3.226841E-1,-1.5933512E-2,-1.5788935E-1,2.7732787E-1,2.3258768E-1,-7.96375E-2,3.378439E-2,1.0602266E-1,2.4595348E-2,3.3290863E-2,1.2853383E-1,1.5822627E-2,7.037698E-2,-3.0469137E-1,7.964595E-2,1.9582523E-2,-1.3742459E-2,-3.7661976E-1,1.4628395E-1,-3.0535626E-1,8.6325355E-2,-4.1824174E-1,2.9398453E-1,-4.512128E-2,-6.556688E-1,-1.2859114E-1,-3.397452E-1,2.9829705E-1,-1.5043812E-1,2.5089905E-1,6.417124E-2,-3.5486323E-1],"split_indices":[70674,58399,89962,6580,26392,68308,48144,0,83739,34972,0,84166,33605,60452,72920,35949,0,34824,61660,70040,59703,0,17041,43441,83770,0,0,0,0,0,0,59115,0,54751,52220,0,344,63334,0,55319,5071,0,0,0,0,0,0,0,0,0,0,0,0,0,0,0,0],"split_type":[0,0,0,0,0,0,0,0,0,0,0,0,0,0,0,0,0,0,0,0,0,0,0,0,0,0,0,0,0,0,0,0,0,0,0,0,0,0,0,0,0,0,0,0,0,0,0,0,0,0,0,0,0,0,0,0,0],"sum_hessian":[1.3991934E3,6.817844E2,7.1740894E2,8.525118E0,6.732593E2,6.881933E2,2.9215662E1,1.8163569E0,6.7087607E0,6.7153754E2,1.7217691E0,1.9565262E1,6.68628E2,2.3883816E1,5.331846E0,2.219703E0,4.4890575E0,2.0449123E0,6.694926E2,1.510917E1,4.456092E0,1.2303289E0,6.673977E2,2.004648E1,3.837335E0,4.070583E0,1.2612631E0,1.1413735E0,1.0783293E0,1.011293E0,1.0336194E0,6.6764777E2,1.8448423E0,2.940784E0,1.21683855E1,1.8549758E0,2.6011162E0,6.659928E2,1.404884E0,1.7289196E1,2.7572846E0,1.8985589E0,1.9387761E0,1.1224391E0,6.665253E2,1.3951184E0,1.5456656E0,1.1165885E1,1.002501E0,1.4848785E0,1.1162375E0,1.0915143E0,6.649013E2,1.6493721E0,1.5639824E1,1.019978E0,1.7373066E0],"tree_param":{"num_deleted":"0","num_feature":"95005","num_nodes":"57","size_leaf_vector":"1"}},{"base_weights":[-1.4549486E-2,8.6485004E-1,-9.735207E-1,7.718828E-2,9.20589E-1,-9.843107E-1,3.9441396E-2,-2.1292102E-1,5.407305E-1,9.5910656E-1,2.6339513E-1,1.3488038E-1,-9.897731E-1,-2.4018675E-1,3.9360517E-1,3.539406E-2,-8.2024246E-1,7.123476E-1,-2.4501713E-1,-7.518224E-1,9.7177726E-1,-1.628971E0,7.1605206E-1,-9.952738E-1,1.13791004E-1,3.0695036E-1,-5.9482884E-1,1.8987345E-2,-2.9342148E-1,8.827308E-1,-1.3226345E-1,1.6241953E-1,-7.252517E-1,9.8119134E-1,-8.2560736E-1,4.5207404E-2,-2.1630256E0,8.4761524E-1,-2.725272E-1,1.0356254E-2,-1.0025686E0,-2.3356296E-1,1.5482563E-1,3.0783135E-2,-2.372179E-1,2.955806E-1,-3.6416534E-2,2.9616827E-1,-2.901983E-1,-3.2918173E-1,-4.94238E-2,-8.216812E-1,-8.4923E-2,2.8203702E-1,-1.09186746E-1,2.4605508E-1,-1.6915897E-1,-3.0194193E-1,1.3202429E-1],"categories":[],"categories_nodes":[],"categories_segments":[],"categories_sizes":[],"default_left":[0,0,1,1,1,0,1,1,1,0,1,0,1,0,0,1,0,1,0,0,1,0,1,0,0,0,0,0,0,1,0,0,0,1,0,0,1,1,0,0,1,0,0,0,0,0,0,0,0,0,0,0,0,0,0,0,0,0,0],"id":9,"left_children":[1,3,5,7,9,11,13,15,17,19,21,-1,23,-1,-1,25,27,29,-1,31,33,35,37,39,-1,41,43,-1,-1,45,-1,-1,-1,47,49,-1,51,53,-1,55,57,-1,-1,-1,-1,-1,-1,-1,-1,-1,-1,-1,-1,-1,-1,-1,-1,-1,-1],"loss_changes":[9.057187E2,2.4525787E1,5.653961E0,5.2410874E0,1.2989624E1,4.42688E0,7.8668256E0,3.6728425E0,4.0658345E0,1.1435333E1,2.7156582E1,0E0,4.193817E0,0E0,0E0,3.2817078E0,1.0454898E0,3.102899E0,0E0,1.0342699E1,9.111328E0,6.1826363E0,6.151331E0,3.7149963E0,0E0,3.4245198E0,8.726826E-1,0E0,0E0,1.3928308E0,0E0,0E0,0E0,6.7003784E0,3.7564564E-1,0E0,4.4268456E0,3.0108013E0,0E0,2.6139495E0,3.2670593E0,0E0,0E0,0E0,0E0,0E0,0E0,0E0,0E0,0E0,0E0,0E0,0E0,0E0,0E0,0E0,0E0,0E0,0E0],"parents":[2147483647,0,0,1,1,2,2,3,3,4,4,5,5,6,6,7,7,8,8,9,9,10,10,12,12,15,15,16,16,17,17,19,19,20,20,21,21,22,22,23,23,25,25,26,26,29,29,33,33,34,34,36,36,37,37,39,39,40,40],"right_children":[2,4,6,8,10,12,14,16,18,20,22,-1,24,-1,-1,26,28,30,-1,32,34,36,38,40,-1,42,44,-1,-1,46,-1,-1,-1,48,50,-1,52,54,-1,56,58,-1,-1,-1,-1,-1,-1,-1,-1,-1,-1,-1,-1,-1,-1,-1,-1,-1,-1],"split_conditions":[4.29618E-1,4.932172E-2,3.804191E-2,5.0013505E-2,2.2394855E-2,5.6162648E-2,1.9795978E-2,1.67849E-2,4.97729E-2,3.6604796E-2,1.44828865E-2,1.3488038E-1,6.876438E-2,-2.4018675E-1,3.9360517E-1,2.8089195E-2,2.1603853E-2,5.0838307E-2,-2.4501713E-1,4.9874935E-2,9.665929E-2,1.1030438E-1,4.175501E-2,4.728702E-2,1.13791004E-1,2.0920815E-2,2.3380568E-2,1.8987345E-2,-2.9342148E-1,2.9651435E-2,-1.3226345E-1,1.6241953E-1,-7.252517E-1,3.9892882E-2,4.8929717E-2,4.5207404E-2,3.2401934E-2,1.8699722E-2,-2.725272E-1,2.5917381E-2,4.539516E-2,-2.3356296E-1,1.5482563E-1,3.0783135E-2,-2.372179E-1,2.955806E-1,-3.6416534E-2,2.9616827E-1,-2.901983E-1,-3.2918173E-1,-4.94238E-2,-8.216812E-1,-8.4923E-2,2.8203702E-1,-1.09186746E-1,2.4605508E-1,-1.6915897E-1,-3.0194193E-1,1.3202429E-1],"split_indices":[70674,89962,20114,72920,43441,3964,72920,48144,17955,87196,72920,0,69300,0,0,84166,5939,58905,0,41534,89022,25197,2516,61056,0,44935,91800,0,0,79138,0,0,0,47701,58618,0,92387,27891,0,50126,60543,0,0,0,0,0,0,0,0,0,0,0,0,0,0,0,0,0,0],"split_type":[0,0,0,0,0,0,0,0,0,0,0,0,0,0,0,0,0,0,0,0,0,0,0,0,0,0,0,0,0,0,0,0,0,0,0,0,0,0,0,0,0,0,0,0,0,0,0,0,0,0,0,0,0,0,0,0,0,0,0],"sum_hessian":[1.0719948E3,5.592486E2,5.1274615E2,3.711745E1,5.2213116E2,5.0737003E2,5.376154E0,2.3162067E1,1.3955385E1,4.9278983E2,2.9341326E1,1.6169006E0,5.057531E2,3.461791E0,1.9143631E0,1.7108604E1,6.0534616E0,1.281098E1,1.1444054E0,3.1938086E0,4.89596E2,5.162099E0,2.4179228E1,5.0400116E2,1.7519666E0,1.2315106E1,4.793498E0,1.0082465E0,5.045215E0,1.1366233E1,1.4447473E0,2.1778867E0,1.0159218E0,4.8749677E2,2.099247E0,1.3572128E0,3.8048859E0,2.2810102E1,1.3691239E0,3.62665E0,5.003745E2,1.5495657E0,1.0765541E1,1.155579E0,3.637919E0,1.0330123E1,1.0361103E0,4.864831E2,1.0136803E0,1.0197031E0,1.0795437E0,2.5628502E0,1.2420356E0,2.1400166E1,1.4099382E0,1.326927E0,2.2997231E0,4.9932544E2,1.0490543E0],"tree_param":{"num_deleted":"0","num_feature":"95005","num_nodes":"59","size_leaf_vector":"1"}},{"base_weights":[-1.584996E-2,8.160425E-1,-9.4698316E-1,4.8771385E-2,8.7843806E-1,-9.5663744E-1,1.883177E-1,4.609087E-1,-2.4199143E-1,-9.8737724E-2,9.1452515E-1,1.8796475E-1,-9.656591E-1,-1.5568766E-1,6.3929206E-1,-4.4883522E-1,2.185604E-1,-5.615091E-1,2.5324628E-1,9.337396E-1,-3.7891456E-1,-9.726362E-1,2.1414441E-1,8.105991E-1,-1.5329295E-1,3.0500367E-1,-6.1913544E-1,-9.8634094E-1,5.0194854E-1,9.461876E-1,-8.173366E-1,2.710948E-1,-4.2177963E-1,-9.7979784E-1,1.4097351E-1,2.785982E-1,-5.625655E-2,-1.1150834E-1,2.0859222E-1,1.4350215E-1,-2.2212721E-1,-4.5130318E-1,4.547512E-2,1.9855268E-1,9.346928E-3,-3.62231E-1,2.867189E-1,-5.848701E-1,1.7020555E-1,-1.3553338E-1,1.7891759E-1,1.06143855E-1,-2.960709E-1],"categories":[],"categories_nodes":[],"categories_segments":[],"categories_sizes":[],"default_left":[0,0,1,0,0,0,0,0,0,0,1,0,1,0,1,0,0,1,0,1,1,1,0,1,0,1,0,1,1,0,0,0,0,0,0,0,0,0,0,0,0,0,0,0,0,0,0,0,0,0,0,0,0],"id":10,"left_children":[1,3,5,7,9,11,-1,13,15,17,19,-1,21,-1,23,25,-1,27,-1,29,31,33,-1,35,-1,37,39,41,43,45,47,49,-1,51,-1,-1,-1,-1,-1,-1,-1,-1,-1,-1,-1,-1,-1,-1,-1,-1,-1,-1,-1],"loss_changes":[6.4068976E2,2.0871033E1,6.533661E0,4.1753926E0,1.4334534E1,6.1509705E0,0E0,2.843966E0,4.4503064E0,7.1451116E0,1.0037598E1,0E0,5.2230835E0,0E0,2.8984022E0,2.4419026E0,0E0,5.39968E0,0E0,9.148682E0,4.6635795E0,4.44104E0,0E0,1.512744E0,0E0,1.2895817E0,2.3037257E0,4.9992313E0,2.62536E-1,9.003723E0,6.199339E0,1.3903637E0,0E0,3.985199E0,0E0,0E0,0E0,0E0,0E0,0E0,0E0,0E0,0E0,0E0,0E0,0E0,0E0,0E0,0E0,0E0,0E0,0E0,0E0],"parents":[2147483647,0,0,1,1,2,2,3,3,4,4,5,5,7,7,8,8,9,9,10,10,12,12,14,14,15,15,17,17,19,19,20,20,21,21,23,23,25,25,26,26,27,27,28,28,29,29,30,30,31,31,33,33],"right_children":[2,4,6,8,10,12,-1,14,16,18,20,-1,22,-1,24,26,-1,28,-1,30,32,34,-1,36,-1,38,40,42,44,46,48,50,-1,52,-1,-1,-1,-1,-1,-1,-1,-1,-1,-1,-1,-1,-1,-1,-1,-1,-1,-1,-1],"split_conditions":[4.29618E-1,4.932172E-2,3.645444E-2,4.2574305E-2,8.881612E-2,7.4591495E-2,1.883177E-1,1.8233782E-1,6.9547124E-2,5.111855E-2,1.6982611E-2,1.8796475E-1,2.673101E-2,-1.5568766E-1,4.55535E-2,2.6008299E-2,2.185604E-1,5.157051E-2,2.5324628E-1,3.819654E-2,1.7798815E-2,4.261687E-2,2.1414441E-1,4.1030113E-2,-1.5329295E-1,3.147833E-2,3.8118612E-2,8.782961E-3,1.4426378E-2,4.967875E-2,7.831465E-2,2.7738774E-2,-4.2177963E-1,5.6162648E-2,1.4097351E-1,2.785982E-1,-5.625655E-2,-1.1150834E-1,2.0859222E-1,1.4350215E-1,-2.2212721E-1,-4.5130318E-1,4.547512E-2,1.9855268E-1,9.346928E-3,-3.62231E-1,2.867189E-1,-5.848701E-1,1.7020555E-1,-1.3553338E-1,1.7891759E-1,1.06143855E-1,-2.960709E-1],"split_indices":[70674,89962,85558,83739,68308,57979,0,69609,59685,54751,39048,0,90808,0,58905,81095,0,59685,0,83523,28626,61660,0,84166,0,72920,64315,83858,30175,4926,84889,2554,0,3964,0,0,0,0,0,0,0,0,0,0,0,0,0,0,0,0,0,0,0],"split_type":[0,0,0,0,0,0,0,0,0,0,0,0,0,0,0,0,0,0,0,0,0,0,0,0,0,0,0,0,0,0,0,0,0,0,0,0,0,0,0,0,0,0,0,0,0,0,0,0,0,0,0,0,0],"sum_hessian":[8.251228E2,4.3584976E2,3.89273E2,3.2912327E1,4.0293744E2,3.872911E2,1.981924E0,1.3372504E1,1.9539824E1,1.4288673E1,3.8864874E2,1.8065848E0,3.8548453E2,1.7654697E0,1.1607035E1,1.6550108E1,2.9897149E0,9.855886E0,4.432787E0,3.832338E2,5.414956E0,3.8430884E2,1.1756914E0,1.035951E1,1.2475241E0,2.9040904E0,1.3646018E1,7.0943418E0,2.7615447E0,3.809851E2,2.2486885E0,3.766891E0,1.648065E0,3.8272952E2,1.579294E0,9.325989E0,1.033522E0,1.0797418E0,1.8243486E0,1.0650575E0,1.258096E1,4.653831E0,2.440511E0,1.7585039E0,1.0030408E0,1.126802E0,3.798583E2,1.0126884E0,1.2360001E0,1.0483779E0,2.718513E0,1.7696878E0,3.8095984E2],"tree_param":{"num_deleted":"0","num_feature":"95005","num_nodes":"53","size_leaf_vector":"1"}},{"base_weights":[-1.51842255E-2,-9.059628E-1,7.760192E-1,2.2464976E-1,-9.277935E-1,8.725521E-1,1.5170828E-1,6.797606E-1,-1.8865903E-1,-9.451241E-1,4.319659E-1,-5.99799E-1,8.952314E-1,-9.402527E-1,5.1065785E-1,-6.386981E-2,1.0293202E0,-9.5445305E-1,1.6186787E-1,-1.825201E-1,4.1661146E-1,1.802048E-1,-6.418939E-1,9.4545144E-1,2.0055273E-1,-1.6393267E0,-3.3023328E-1,6.242365E-1,-3.837024E-1,9.260281E-2,3.5805127E-1,-9.640668E-1,1.4109014E-1,9.574126E-1,-3.4058183E-1,3.4638488E-1,-2.7950957E-1,-1.9535803E0,-1.0668991E-1,-3.6587077E-1,1.3384452E-1,-2.4213336E-1,8.095642E-1,1.3823798E-1,-2.9205972E-1,2.9072493E-1,-2.9238668E-1,1.5828419E-1,-1.6578631E-1,-1.8827394E-1,-6.837047E-1,1.755559E-1,-1.5803567E-1,-2.5804207E-1,2.1317647E-1,2.6893815E-1,-2.0280142E-1],"categories":[],"categories_nodes":[],"categories_segments":[],"categories_sizes":[],"default_left":[1,0,1,1,1,0,1,0,0,1,0,1,1,0,1,0,1,1,0,0,0,0,0,1,1,1,0,0,0,0,0,0,0,1,0,1,0,0,0,0,1,0,1,0,0,0,0,0,0,0,0,0,0,0,0,0,0],"id":11,"left_children":[1,3,5,7,9,11,13,15,-1,17,19,21,23,25,27,-1,29,31,-1,-1,-1,-1,-1,33,35,37,39,41,-1,-1,-1,43,-1,45,-1,47,-1,49,-1,-1,51,53,55,-1,-1,-1,-1,-1,-1,-1,-1,-1,-1,-1,-1,-1,-1],"loss_changes":[4.518303E2,7.65152E0,2.0329971E1,2.9591513E0,7.384598E0,1.0349213E1,1.8776485E1,1.6955187E0,0E0,4.5680847E0,5.2364035E0,1.0632426E1,9.920395E0,4.53347E0,8.071124E0,0E0,5.4153204E-2,4.4415894E0,0E0,0E0,0E0,0E0,0E0,7.8063507E0,3.7583194E0,1.4404955E0,3.3028588E0,5.7058554E0,0E0,0E0,0E0,4.353607E0,0E0,7.009552E0,0E0,3.4135084E0,0E0,3.0860996E-1,0E0,0E0,2.0674107E0,4.624875E0,4.2849655E0,0E0,0E0,0E0,0E0,0E0,0E0,0E0,0E0,0E0,0E0,0E0,0E0,0E0,0E0],"parents":[2147483647,0,0,1,1,2,2,3,3,4,4,5,5,6,6,7,7,9,9,10,10,11,11,12,12,13,13,14,14,16,16,17,17,23,23,24,24,25,25,26,26,27,27,31,31,33,33,35,35,37,37,40,40,41,41,42,42],"right_children":[2,4,6,8,10,12,14,16,-1,18,20,22,24,26,28,-1,30,32,-1,-1,-1,-1,-1,34,36,38,40,42,-1,-1,-1,44,-1,46,-1,48,-1,50,-1,-1,52,54,56,-1,-1,-1,-1,-1,-1,-1,-1,-1,-1,-1,-1,-1,-1],"split_conditions":[6.5068356E-3,3.7684448E-2,1.5069013E-2,1.3476245E-2,2.3037687E-2,4.6741586E-2,1.5849158E-2,2.684714E-2,-1.8865903E-1,9.76692E-2,6.0451962E-2,2.3119453E-2,1.2144064E-2,8.262654E-2,2.8340695E-2,-6.386981E-2,1.6724553E-2,6.876438E-2,1.6186787E-1,-1.825201E-1,4.1661146E-1,1.802048E-1,-6.418939E-1,1.5389444E-1,3.6064588E-2,2.3415286E-2,5.121583E-2,4.5992084E-2,-3.837024E-1,9.260281E-2,3.5805127E-1,7.2581396E-2,1.4109014E-1,6.6823296E-2,-3.4058183E-1,5.6653183E-2,-2.7950957E-1,3.829798E-2,-1.0668991E-1,-3.6587077E-1,2.2206852E-2,5.492157E-2,6.929252E-2,1.3823798E-1,-2.9205972E-1,2.9072493E-1,-2.9238668E-1,1.5828419E-1,-1.6578631E-1,-1.8827394E-1,-6.837047E-1,1.755559E-1,-1.5803567E-1,-2.5804207E-1,2.1317647E-1,2.6893815E-1,-2.0280142E-1],"split_indices":[70674,58399,43441,54751,41062,3112,72920,58437,0,20114,4652,70040,89962,57183,35369,0,79794,69300,0,0,0,0,0,88943,6580,37087,33110,52220,0,0,0,34972,0,69722,0,41338,0,93149,0,0,580,72920,21458,0,0,0,0,0,0,0,0,0,0,0,0,0,0],"split_type":[0,0,0,0,0,0,0,0,0,0,0,0,0,0,0,0,0,0,0,0,0,0,0,0,0,0,0,0,0,0,0,0,0,0,0,0,0,0,0,0,0,0,0,0,0,0,0,0,0,0,0,0,0,0,0,0,0],"sum_hessian":[6.390901E2,3.0055942E2,3.385307E2,5.517492E0,2.9504193E2,2.9285147E2,4.567922E1,3.7314038E0,1.7860881E0,2.9162994E2,3.4119916E0,4.056469E0,2.88795E2,1.0900212E1,3.4779007E1,1.1600274E0,2.5713766E0,2.9016385E2,1.4661024E0,1.8089802E0,1.6030115E0,2.6221333E0,1.4343356E0,2.689882E2,1.9806814E1,4.2930737E0,6.6071386E0,3.331586E1,1.4631451E0,1.0115397E0,1.559837E0,2.885402E2,1.6236323E0,2.6798752E2,1.0006714E0,1.8161692E1,1.645123E0,3.0295775E0,1.263496E0,1.7073383E0,4.8998003E0,5.8168297E0,2.7499031E1,1.5894991E0,2.869507E2,2.6687387E2,1.1136452E0,1.5458544E1,2.7031476E0,1.1740973E0,1.8554802E0,2.9788516E0,1.9209489E0,3.587126E0,2.2297037E0,2.6354042E1,1.1449889E0],"tree_param":{"num_deleted":"0","num_feature":"95005","num_nodes":"57","size_leaf_vector":"1"}},{"base_weights":[-1.7707374E-2,7.0968217E-1,-8.8447356E-1,1.4566779E-1,8.644226E-1,-9.0007824E-1,2.6970747E-1,6.3108647E-1,-6.1018866E-1,9.1920733E-1,-1.4525729E-2,-9.196555E-1,3.3854115E-1,-2.6296493E-1,7.5198466E-1,-1.5324438E-1,-1.5206407E0,-2.9506198E-1,9.3799925E-1,2.0910373E-1,-2.3966865E-1,-9.41942E-1,1.0494495E-1,-4.075431E-1,4.1384637E-1,-2.9851425E-1,8.695186E-1,2.6966664E-1,-1.0763222E0,-2.0851178E0,-4.4764236E-1,9.618652E-1,-5.0324076E-1,5.7804984E-1,-4.0313765E-1,-9.5791596E-1,2.2174491E-1,-1.6682929E-1,2.4417505E-1,-6.067732E-3,-1.711547E-1,2.8040713E-1,-1.6209544E-1,1.8910213E-1,-1.988683E-1,6.19512E-2,-4.2291522E-1,-9.2246145E-2,-7.8278893E-1,-2.0594917E-1,3.162598E-2,2.9241544E-1,-1.489642E-1,1.8644543E-1,-4.5957708E-1,2.4522911E-1,-7.131322E-2,2.936454E-2,-2.458398E-1,1.7958733E-1,-2.9057074E-1,2.8728336E-1,-1.7774737E-1],"categories":[],"categories_nodes":[],"categories_segments":[],"categories_sizes":[],"default_left":[0,1,1,1,1,1,0,0,1,0,1,1,1,0,0,1,1,0,1,1,0,1,1,1,0,0,1,1,1,0,0,1,1,1,1,0,1,0,0,0,0,0,0,0,0,0,0,0,0,0,0,0,0,0,0,0,0,0,0,0,0,0,0],"id":12,"left_children":[1,3,5,7,9,11,-1,13,15,17,19,21,23,-1,25,27,29,-1,31,33,-1,35,37,39,-1,-1,41,43,45,47,49,51,53,55,57,59,61,-1,-1,-1,-1,-1,-1,-1,-1,-1,-1,-1,-1,-1,-1,-1,-1,-1,-1,-1,-1,-1,-1,-1,-1,-1,-1],"loss_changes":[3.153268E2,2.3608505E1,7.160141E0,2.2307795E1,1.0279434E1,5.80896E0,0E0,7.3804693E0,9.699404E0,8.0989685E0,2.5338902E0,5.2014923E0,3.8695803E0,0E0,7.9854755E0,6.9299994E0,3.830984E0,0E0,7.3376465E0,2.7837875E0,0E0,4.279648E0,3.1037536E0,1.9377095E-1,0E0,0E0,3.5393295E0,4.610127E0,2.662393E0,3.7458649E0,5.987969E-1,4.1645813E0,5.466921E0,1.6505027E0,1.0887927E0,4.1620026E0,2.8291593E0,0E0,0E0,0E0,0E0,0E0,0E0,0E0,0E0,0E0,0E0,0E0,0E0,0E0,0E0,0E0,0E0,0E0,0E0,0E0,0E0,0E0,0E0,0E0,0E0,0E0,0E0],"parents":[2147483647,0,0,1,1,2,2,3,3,4,4,5,5,7,7,8,8,9,9,10,10,11,11,12,12,14,14,15,15,16,16,18,18,19,19,21,21,22,22,23,23,26,26,27,27,28,28,29,29,30,30,31,31,32,32,33,33,34,34,35,35,36,36],"right_children":[2,4,6,8,10,12,-1,14,16,18,20,22,24,-1,26,28,30,-1,32,34,-1,36,38,40,-1,-1,42,44,46,48,50,52,54,56,58,60,62,-1,-1,-1,-1,-1,-1,-1,-1,-1,-1,-1,-1,-1,-1,-1,-1,-1,-1,-1,-1,-1,-1,-1,-1,-1,-1],"split_conditions":[4.29618E-1,2.58241E-2,7.0004135E-2,1.4924466E-2,1.6415207E-2,2.2925057E-2,2.6970747E-1,3.5167176E-2,1.039897E-2,8.443734E-2,2.743995E-2,1.7347706E-2,1.3996011E-2,-2.6296493E-1,1.4092483E-2,1.0163445E-2,3.3167034E-2,-2.9506198E-1,6.798269E-2,1.8838016E-2,-2.3966865E-1,3.7318364E-2,1.6724553E-2,2.0424824E-2,4.1384637E-1,-2.9851425E-1,4.3934785E-2,1.2144064E-2,3.66498E-2,2.8204653E-2,6.388032E-2,9.665929E-2,7.031366E-2,3.281233E-2,1.8183257E-2,4.2293306E-2,1.7652232E-2,-1.6682929E-1,2.4417505E-1,-6.067732E-3,-1.711547E-1,2.8040713E-1,-1.6209544E-1,1.8910213E-1,-1.988683E-1,6.19512E-2,-4.2291522E-1,-9.2246145E-2,-7.8278893E-1,-2.0594917E-1,3.162598E-2,2.9241544E-1,-1.489642E-1,1.8644543E-1,-4.5957708E-1,2.4522911E-1,-7.131322E-2,2.936454E-2,-2.458398E-1,1.7958733E-1,-2.9057074E-1,2.8728336E-1,-1.7774737E-1],"split_indices":[70674,72920,6486,84166,89962,26770,0,39055,94119,2258,60452,58399,47358,0,57183,52220,92735,0,80652,21859,0,27457,79794,30937,0,0,91606,89962,41338,92735,57183,89022,88284,84166,2327,71042,84166,0,0,0,0,0,0,0,0,0,0,0,0,0,0,0,0,0,0,0,0,0,0,0,0,0,0],"split_type":[0,0,0,0,0,0,0,0,0,0,0,0,0,0,0,0,0,0,0,0,0,0,0,0,0,0,0,0,0,0,0,0,0,0,0,0,0,0,0,0,0,0,0,0,0,0,0,0,0,0,0,0,0,0,0,0,0,0,0,0,0,0,0],"sum_hessian":[4.9814474E2,2.7094724E2,2.271975E2,5.8750084E1,2.1219716E2,2.2571791E2,1.4795823E0,3.5875526E1,2.2874557E1,1.9970384E2,1.2493316E1,2.224593E2,3.258608E0,2.199299E0,3.3676228E1,1.6008442E1,6.8661156E0,1.4509563E0,1.9825288E2,1.0292315E1,2.2010012E0,2.1780246E2,4.6568365E0,2.252586E0,1.0060222E0,1.6521729E0,3.202405E1,1.1464024E1,4.544418E0,3.8811028E0,2.9850125E0,1.9535063E2,2.902255E0,6.457046E0,3.8352687E0,2.150276E2,2.774867E0,2.521463E0,2.1353738E0,1.0000329E0,1.2525531E0,3.0931234E1,1.0928186E0,8.500484E0,2.9635391E0,1.0159363E0,3.5284815E0,1.245132E0,2.6359708E0,1.9161892E0,1.0688235E0,1.9397281E2,1.3778136E0,1.5755014E0,1.3267537E0,4.9905496E0,1.4664966E0,2.0877333E0,1.7475353E0,1.0864947E0,2.139411E2,1.3650854E0,1.4097818E0],"tree_param":{"num_deleted":"0","num_feature":"95005","num_nodes":"63","size_leaf_vector":"1"}},{"base_weights":[-2.0442916E-2,6.6276485E-1,-8.443367E-1,1.188558E-1,8.2530546E-1,-8.7294996E-1,4.8825073E-1,-6.919402E-1,4.9616477E-1,8.8897777E-1,-2.5730744E-2,-9.0289915E-1,1.6548228E-1,-1.8367013E-1,3.8831636E-1,-2.0726395E-1,-1.630919E0,6.568242E-1,-9.058216E-1,9.178604E-1,-4.9894834E-1,5.7038677E-1,-2.5017422E-1,-9.287606E-1,3.1858996E-1,5.6137395E-1,-1.8082584E-1,-6.916391E-1,4.1059276E-1,-2.150034E0,-6.2458225E-2,-2.3283875E-1,7.85433E-1,-2.2179091E-2,-5.002421E-1,9.4116855E-1,-2.1406403E-1,1.6300383E-1,-3.4773442E-1,5.034803E-2,1.9794977E-1,1.4457686E-1,-4.648807E-1,-9.4626856E-1,1.782678E-1,-3.9731228E-1,3.9495748E-1,-2.062935E-2,2.82088E-1,3.1005996E-3,-2.5371602E-1,-1.11626424E-1,1.9537047E-1,-1.740756E-1,-7.829555E-1,-1.3510635E-1,2.581424E-1,2.8849065E-1,-2.6697168E-1,7.756521E-2,-1.9036256E-1,1.3263118E-1,-2.8957063E-1,-1.6968985E-1,-3.2504362E-3],"categories":[],"categories_nodes":[],"categories_segments":[],"categories_sizes":[],"default_left":[0,1,1,0,1,1,1,1,1,1,0,1,1,0,0,0,1,0,1,1,1,0,0,1,1,1,0,1,0,1,0,0,0,0,0,1,0,0,0,0,0,0,0,0,0,0,0,0,0,0,0,0,0,0,0,0,0,0,0,0,0,0,0,0,0],"id":13,"left_children":[1,3,5,7,9,11,13,15,17,19,21,23,25,-1,-1,27,29,31,33,35,37,39,41,43,45,47,-1,49,51,53,-1,-1,55,-1,-1,57,-1,-1,-1,-1,-1,-1,59,61,-1,63,-1,-1,-1,-1,-1,-1,-1,-1,-1,-1,-1,-1,-1,-1,-1,-1,-1,-1,-1],"loss_changes":[2.1942891E2,1.8743652E1,7.163994E0,1.5701772E1,8.905281E0,5.5406647E0,4.656671E0,7.1078796E0,8.443093E0,6.5727463E0,1.7993749E0,5.6233673E0,2.0733352E0,0E0,0E0,3.8562944E0,3.5586386E0,6.477482E0,2.4128344E0,6.3669586E0,3.2152398E0,2.2191405E-2,1.7472503E0,4.9727325E0,3.553053E0,1.0871584E0,0E0,7.7274203E-1,1.3484749E0,1.2769566E0,0E0,0E0,3.1431656E0,0E0,0E0,6.4061127E0,0E0,0E0,0E0,0E0,0E0,0E0,1.1462123E0,4.742996E0,0E0,2.044918E-1,0E0,0E0,0E0,0E0,0E0,0E0,0E0,0E0,0E0,0E0,0E0,0E0,0E0,0E0,0E0,0E0,0E0,0E0,0E0],"parents":[2147483647,0,0,1,1,2,2,3,3,4,4,5,5,6,6,7,7,8,8,9,9,10,10,11,11,12,12,15,15,16,16,17,17,18,18,19,19,20,20,21,21,22,22,23,23,24,24,25,25,27,27,28,28,29,29,32,32,35,35,42,42,43,43,45,45],"right_children":[2,4,6,8,10,12,14,16,18,20,22,24,26,-1,-1,28,30,32,34,36,38,40,42,44,46,48,-1,50,52,54,-1,-1,56,-1,-1,58,-1,-1,-1,-1,-1,-1,60,62,-1,64,-1,-1,-1,-1,-1,-1,-1,-1,-1,-1,-1,-1,-1,-1,-1,-1,-1,-1,-1],"split_conditions":[1.04603074E-1,2.58241E-2,3.804191E-2,1.2395711E-1,1.6415207E-2,1.7347706E-2,1.9795978E-2,1.2412867E-2,4.0314667E-2,2.9883752E-2,4.024066E-2,2.2925057E-2,1.3476245E-2,-1.8367013E-1,3.8831636E-1,5.448051E-2,8.698511E-3,3.7620317E-2,4.1379903E-2,4.348572E-2,1.8039871E-2,4.889693E-2,3.7618842E-2,3.615854E-2,2.119752E-2,1.8657824E-2,-1.8082584E-1,1.3322654E-2,2.6348224E-2,1.473208E-2,-6.2458225E-2,-2.3283875E-1,6.027434E-2,-2.2179091E-2,-5.002421E-1,2.1945399E-1,-2.1406403E-1,1.6300383E-1,-3.4773442E-1,5.034803E-2,1.9794977E-1,1.4457686E-1,1.3352205E-1,1.6010989E-2,1.782678E-1,5.4772656E-2,3.9495748E-1,-2.062935E-2,2.82088E-1,3.1005996E-3,-2.5371602E-1,-1.11626424E-1,1.9537047E-1,-1.740756E-1,-7.829555E-1,-1.3510635E-1,2.581424E-1,2.8849065E-1,-2.6697168E-1,7.756521E-2,-1.9036256E-1,1.3263118E-1,-2.8957063E-1,-1.6968985E-1,-3.2504362E-3],"split_indices":[70674,72920,20114,57183,89962,58399,72920,84239,84166,68308,54751,26770,54751,0,0,54751,93149,28626,30937,68289,54751,72920,35949,52326,73722,70149,0,84166,91977,11534,0,0,70059,0,0,85569,0,0,0,0,0,0,30175,24963,0,59703,0,0,0,0,0,0,0,0,0,0,0,0,0,0,0,0,0,0,0],"split_type":[0,0,0,0,0,0,0,0,0,0,0,0,0,0,0,0,0,0,0,0,0,0,0,0,0,0,0,0,0,0,0,0,0,0,0,0,0,0,0,0,0,0,0,0,0,0,0,0,0,0,0,0,0,0,0,0,0,0,0,0,0,0,0,0,0],"sum_hessian":[3.8783096E2,2.1212416E2,1.757068E2,4.920406E1,1.629201E2,1.7235101E2,3.3557923E0,1.5361018E1,3.384304E1,1.5153786E2,1.1382247E1,1.6764648E2,4.704536E0,1.5205597E0,1.8352327E0,1.0936577E1,4.424441E0,3.0840414E1,3.0026257E0,1.4878043E2,2.7574265E0,2.6917286E0,8.690517E0,1.6440532E2,3.2411537E0,3.2823324E0,1.4222037E0,6.0635657E0,4.8730116E0,2.8671024E0,1.5573384E0,2.1253266E0,2.8715088E1,1.9594939E0,1.0431318E0,1.4710187E2,1.6785707E0,1.1378709E0,1.6195556E0,1.0122567E0,1.6794719E0,1.6885175E0,7.0020003E0,1.6291121E2,1.4941207E0,2.2377174E0,1.0034363E0,1.5399458E0,1.7423866E0,1.259294E0,4.8042717E0,1.0174754E0,3.8555362E0,1.1620098E0,1.7050925E0,1.3575503E0,2.7357538E1,1.4594537E2,1.1564877E0,1.2306426E0,5.771358E0,1.8948987E0,1.6101631E2,1.2358948E0,1.0018226E0],"tree_param":{"num_deleted":"0","num_feature":"95005","num_nodes":"65","size_leaf_vector":"1"}},{"base_weights":[-2.246694E-2,5.998569E-1,-8.063772E-1,7.5039923E-1,-5.0530214E-2,-8.442525E-1,4.184595E-1,-6.9504505E-1,8.0018073E-1,-4.7267976E-1,4.979224E-1,-8.706795E-1,5.595827E-1,4.6908283E-1,-1.6542408E-1,1.0348128E-1,-4.3916568E-1,8.8475275E-1,8.062764E-2,-2.8108472E-1,-5.1241416E-1,7.0198625E-1,-3.5052124E-1,-9.0391284E-1,3.0190453E-1,-1.543319E-1,4.0935484E-1,1.3995737E-1,-1.19135685E-1,-2.0686115E-1,9.1117907E-1,3.798796E-1,-3.8622802E-1,2.1638101E-1,-7.064398E-1,8.470723E-1,-1.0401639E-1,-9.225061E-1,1.8955973E-1,4.4254425E-1,-2.038903E-1,2.8348464E-1,-1.0807193E-1,1.6102506E-1,-1.2744497E-1,9.591967E-2,-1.7704399E-1,1.438934E-1,-2.1197216E-1,-2.962846E-1,1.1801718E-1,2.77507E-1,-7.795815E-3,-2.8746566E-1,-1.863971E-2],"categories":[],"categories_nodes":[],"categories_segments":[],"categories_sizes":[],"default_left":[0,1,1,0,1,1,0,1,1,1,1,1,0,0,0,0,0,0,0,1,0,1,0,1,0,0,0,0,0,0,1,1,0,1,1,1,0,1,0,0,0,0,0,0,0,0,0,0,0,0,0,0,0,0,0],"id":14,"left_children":[1,3,5,7,9,11,13,15,17,19,21,23,25,-1,-1,27,-1,29,31,33,-1,35,-1,37,39,-1,-1,-1,-1,-1,41,43,45,47,49,51,-1,53,-1,-1,-1,-1,-1,-1,-1,-1,-1,-1,-1,-1,-1,-1,-1,-1,-1],"loss_changes":[1.5057027E2,1.688591E1,6.6892242E0,1.0615288E1,7.9406476E0,5.414406E0,6.154724E0,3.337485E0,8.180809E0,4.09236E0,5.9077244E0,5.368019E0,3.3497238E0,0E0,0E0,8.176379E-1,0E0,5.672325E0,2.2929413E0,3.9450421E0,0E0,2.4168386E0,0E0,4.2206955E0,6.0156054E0,0E0,0E0,0E0,0E0,0E0,5.4785995E0,1.4733979E0,1.1239231E0,2.532062E0,3.4486356E0,8.7803936E-1,0E0,3.8205338E0,0E0,0E0,0E0,0E0,0E0,0E0,0E0,0E0,0E0,0E0,0E0,0E0,0E0,0E0,0E0,0E0,0E0],"parents":[2147483647,0,0,1,1,2,2,3,3,4,4,5,5,6,6,7,7,8,8,9,9,10,10,11,11,12,12,15,15,17,17,18,18,19,19,21,21,23,23,24,24,30,30,31,31,32,32,33,33,34,34,35,35,37,37],"right_children":[2,4,6,8,10,12,14,16,18,20,22,24,26,-1,-1,28,-1,30,32,34,-1,36,-1,38,40,-1,-1,-1,-1,-1,42,44,46,48,50,52,-1,54,-1,-1,-1,-1,-1,-1,-1,-1,-1,-1,-1,-1,-1,-1,-1,-1,-1],"split_conditions":[4.29618E-1,1.2755551E-2,2.1066096E-2,6.666637E-2,5.0013505E-2,3.702422E-2,2.611875E-2,2.271156E-2,1.2144064E-2,3.1782914E-2,7.334556E-2,2.2560067E-2,6.61321E-2,4.6908283E-1,-1.6542408E-1,3.3233348E-1,-4.3916568E-1,1.7578939E-2,5.397452E-2,3.7688095E-2,-5.1241416E-1,1.9121805E-2,-3.5052124E-1,4.943733E-2,6.523579E-2,-1.543319E-1,4.0935484E-1,1.3995737E-1,-1.19135685E-1,-2.0686115E-1,2.824768E-2,4.964633E-2,3.6185946E-2,2.535404E-2,1.2294728E-2,2.3111338E-2,-1.0401639E-1,9.256561E-3,1.8955973E-1,4.4254425E-1,-2.038903E-1,2.8348464E-1,-1.0807193E-1,1.6102506E-1,-1.2744497E-1,9.591967E-2,-1.7704399E-1,1.438934E-1,-2.1197216E-1,-2.962846E-1,1.1801718E-1,2.77507E-1,-7.795815E-3,-2.8746566E-1,-1.863971E-2],"split_indices":[70674,43441,85536,3112,72920,13363,37087,6869,89962,1027,73620,88349,41534,0,0,83770,0,18003,35645,41338,0,89962,0,91575,75021,0,0,0,0,0,68308,15298,35949,73742,61785,90635,0,16347,0,0,0,0,0,0,0,0,0,0,0,0,0,0,0,0,0],"split_type":[0,0,0,0,0,0,0,0,0,0,0,0,0,0,0,0,0,0,0,0,0,0,0,0,0,0,0,0,0,0,0,0,0,0,0,0,0,0,0,0,0,0,0,0,0,0,0,0,0,0,0,0,0,0,0],"sum_hessian":[3.066515E2,1.7107486E2,1.3557663E2,1.3879483E2,3.2280018E1,1.3181139E2,3.765253E0,4.1894374E0,1.3460541E2,1.8318352E1,1.3961665E1,1.2974867E2,2.0627096E0,1.4458857E0,2.3193674E0,2.4795525E0,1.7098849E0,1.2024315E2,1.4362251E1,1.6921501E1,1.3968505E0,1.2953998E1,1.0076674E0,1.263955E2,3.3531742E0,1.0382562E0,1.0244534E0,1.4766976E0,1.0028551E0,1.5708398E0,1.1867231E2,8.865692E0,5.4965587E0,8.026066E0,8.895436E0,1.1548554E1,1.4054433E0,1.25278114E2,1.1173822E0,1.2983505E0,2.0548236E0,1.15851974E2,2.8203323E0,7.6979933E0,1.1676987E0,1.1045831E0,4.391976E0,6.6185164E0,1.4075495E0,7.165564E0,1.7298722E0,1.0547317E1,1.0012378E0,1.2017607E2,5.102042E0],"tree_param":{"num_deleted":"0","num_feature":"95005","num_nodes":"55","size_leaf_vector":"1"}},{"base_weights":[-2.2695346E-2,5.3883064E-1,-7.4936587E-1,-1.1669991E-2,7.367947E-1,-7.878326E-1,7.0426416E-1,3.8985685E-1,-6.992789E-1,7.8916943E-1,-4.088656E-1,2.6687512E-2,-8.5230005E-1,4.1261998E-1,-6.0464665E-2,-6.970226E-1,5.645808E-1,-1.6762356E-1,-1.2532703E0,1.4751486E-1,8.7000155E-1,-9.7222793E-1,1.4652044E-1,-4.261495E-1,4.8465922E-1,-8.7854606E-1,2.536527E-1,-3.244155E-1,1.5875934E-2,-2.0598488E-1,6.907255E-1,-6.280025E-1,3.1957474E-1,-1.760571E-1,-1.9248793E0,4.3492982E-1,-3.3141318E-1,8.9891464E-1,-1.4022826E-1,-4.7852615E-1,-1.2456325E-2,-2.488082E-1,1.6384107E-1,1.8782301E-1,-9.0074384E-1,2.3903568E-1,-7.6297425E-2,-2.407327E-1,-2.9094652E-3,-7.577606E-2,2.0314592E-1,1.05340466E-1,-1.8259904E-1,-7.978784E-1,-1.620768E-1,2.2335918E-1,-1.7974341E-1,2.7704197E-1,-1.7801955E-1,-2.7637944E-1,1.364301E-1],"categories":[],"categories_nodes":[],"categories_segments":[],"categories_sizes":[],"default_left":[0,1,1,1,1,0,1,0,1,0,0,1,1,0,0,0,0,0,0,1,1,0,0,1,0,0,0,0,0,0,1,1,0,1,0,1,0,1,0,0,0,0,0,0,1,0,0,0,0,0,0,0,0,0,0,0,0,0,0,0,0],"id":15,"left_children":[1,3,5,7,9,11,13,15,17,19,21,23,25,-1,-1,27,29,31,33,35,37,39,-1,41,-1,43,-1,-1,-1,-1,45,47,49,51,53,55,-1,57,-1,-1,-1,-1,-1,-1,59,-1,-1,-1,-1,-1,-1,-1,-1,-1,-1,-1,-1,-1,-1,-1,-1],"loss_changes":[1.0146196E2,1.52972145E1,6.6148186E0,1.0789011E1,6.514988E0,5.5916214E0,2.29671E0,5.0821705E0,4.031311E0,5.007923E0,3.0883524E0,6.982462E0,5.12339E0,0E0,0E0,1.1718469E0,3.9185824E0,2.1078238E0,4.6513414E0,4.9014297E0,3.8132248E0,1.9688041E0,0E0,3.4320035E0,0E0,3.8136597E0,0E0,0E0,0E0,0E0,2.2396164E0,5.0011086E-1,1.151814E0,1.0688858E0,2.7829666E0,3.874258E0,0E0,3.7082596E0,0E0,0E0,0E0,0E0,0E0,0E0,3.0975342E0,0E0,0E0,0E0,0E0,0E0,0E0,0E0,0E0,0E0,0E0,0E0,0E0,0E0,0E0,0E0,0E0],"parents":[2147483647,0,0,1,1,2,2,3,3,4,4,5,5,6,6,7,7,8,8,9,9,10,10,11,11,12,12,15,15,16,16,17,17,18,18,19,19,20,20,21,21,23,23,25,25,30,30,31,31,32,32,33,33,34,34,35,35,37,37,44,44],"right_children":[2,4,6,8,10,12,14,16,18,20,22,24,26,-1,-1,28,30,32,34,36,38,40,-1,42,-1,44,-1,-1,-1,-1,46,48,50,52,54,56,-1,58,-1,-1,-1,-1,-1,-1,60,-1,-1,-1,-1,-1,-1,-1,-1,-1,-1,-1,-1,-1,-1,-1,-1],"split_conditions":[1.04603074E-1,2.58241E-2,3.3704653E-2,2.1518972E-2,2.1691792E-2,5.5444892E-2,1.0054207E-2,5.811398E-2,2.8046355E-2,5.138891E-2,5.492157E-2,1.6037744E-2,3.7687875E-2,4.1261998E-1,-6.0464665E-2,3.5888016E-2,3.626524E-2,3.299286E-2,8.2382315E-1,5.3806987E-2,1.8726874E-2,2.1075878E-2,1.4652044E-1,3.2795426E-2,4.8465922E-1,4.7847643E-2,2.536527E-1,-3.244155E-1,1.5875934E-2,-2.0598488E-1,3.1420503E-2,8.9010075E-3,3.4838628E-2,2.7637133E-2,3.472015E-2,3.3036646E-2,-3.3141318E-1,3.617288E-2,-1.4022826E-1,-4.7852615E-1,-1.2456325E-2,-2.488082E-1,1.6384107E-1,1.8782301E-1,9.311892E-2,2.3903568E-1,-7.6297425E-2,-2.407327E-1,-2.9094652E-3,-7.577606E-2,2.0314592E-1,1.05340466E-1,-1.8259904E-1,-7.978784E-1,-1.620768E-1,2.2335918E-1,-1.7974341E-1,2.7704197E-1,-1.7801955E-1,-2.7637944E-1,1.364301E-1],"split_indices":[70674,72920,50970,84166,8729,75017,84066,89022,86319,70044,72920,19019,61660,0,0,70044,39055,60470,70149,3077,39048,41534,0,37882,0,89840,0,0,0,0,36883,93149,92028,36883,11534,580,0,4008,0,0,0,0,0,0,42784,0,0,0,0,0,0,0,0,0,0,0,0,0,0,0,0],"split_type":[0,0,0,0,0,0,0,0,0,0,0,0,0,0,0,0,0,0,0,0,0,0,0,0,0,0,0,0,0,0,0,0,0,0,0,0,0,0,0,0,0,0,0,0,0,0,0,0,0,0,0,0,0,0,0,0,0,0,0,0,0],"sum_hessian":[2.4666466E2,1.3928914E2,1.0737553E2,3.7089977E1,1.0219916E2,1.05053566E2,2.3219647E0,2.3689564E1,1.34004135E1,9.802886E1,4.170297E0,7.7479053E0,9.730566E1,1.0359749E0,1.2859899E0,2.8668566E0,2.0822708E1,7.5027432E0,5.89767E0,1.1283567E1,8.674529E1,2.5104997E0,1.6597977E0,6.598928E0,1.1489774E0,9.629953E1,1.0061296E0,1.6032152E0,1.2636415E0,1.5001379E0,1.9322569E1,3.7089534E0,3.79379E0,2.7496188E0,3.148051E0,9.708024E0,1.5755433E0,8.523062E1,1.5146736E0,1.076336E0,1.4341636E0,4.768437E0,1.8304911E0,1.004541E0,9.529499E1,1.7513922E1,1.8086481E0,2.6605353E0,1.048418E0,1.5720185E0,2.2217715E0,1.3242093E0,1.4254094E0,1.4551208E0,1.6929302E0,7.6866517E0,2.0213723E0,8.422572E1,1.0049006E0,9.4189415E1,1.1055685E0],"tree_param":{"num_deleted":"0","num_feature":"95005","num_nodes":"61","size_leaf_vector":"1"}},{"base_weights":[-2.4824578E-2,4.63041E-1,-6.9378245E-1,-4.920892E-2,6.729239E-1,-7.508931E-1,5.02947E-1,-6.292117E-1,3.1636485E-1,7.7635384E-1,-1.5173778E-1,-7.995588E-1,6.8481916E-1,1.0831989E0,-1.675787E-1,-9.704892E-1,-5.275963E-2,4.9175456E-1,-8.5163116E-1,8.284356E-1,-4.7644618E-1,9.3416855E-2,-6.948823E-1,-8.3397317E-1,2.5775623E-1,4.5601636E-1,-1.5633357E-1,4.508719E-1,4.4375446E-2,-2.1033881E-2,-1.0876672E0,2.6353335E-1,-2.446068E-1,6.363965E-1,-1.9372864E-1,-3.7945607E-1,-2.172495E-3,-3.3467022E-1,8.8030106E-1,7.4423224E-2,-2.9611138E-1,4.6566418E-1,-3.466364E-1,-6.56763E-2,-2.4676724E-1,-8.708963E-1,1.8714029E-1,-3.685687E-1,-6.0258582E-2,-9.9341206E-2,1.7163925E-1,2.4330766E-1,-1.7602984E-2,1.8075554E-1,-3.6181265E-1,2.7481142E-1,-2.2952238E-1,1.908686E-1,-2.2677299E-2,2.960034E-2,-1.6780503E-1,1.636384E-1,-2.7206323E-1],"categories":[],"categories_nodes":[],"categories_segments":[],"categories_sizes":[],"default_left":[0,1,1,0,1,1,1,0,1,1,1,1,0,0,0,0,0,1,0,0,1,1,0,1,0,0,0,0,0,0,1,0,0,1,0,0,0,0,1,0,0,1,0,0,0,0,0,0,0,0,0,0,0,0,0,0,0,0,0,0,0,0,0],"id":16,"left_children":[1,3,5,7,9,11,13,15,17,19,21,23,25,27,-1,29,31,33,35,37,39,41,43,45,-1,-1,-1,-1,-1,-1,47,49,-1,51,-1,-1,-1,53,55,-1,-1,57,59,-1,-1,61,-1,-1,-1,-1,-1,-1,-1,-1,-1,-1,-1,-1,-1,-1,-1,-1,-1],"loss_changes":[6.6315025E1,1.2669313E1,6.233433E0,7.6397133E0,7.234833E0,6.2892456E0,3.3777623E0,2.6836581E0,4.9645624E0,5.242977E0,1.4144897E0,5.280121E0,4.0483513E0,1.0537469E0,0E0,8.389368E-1,1.7168727E0,3.6896148E0,1.1294267E0,4.620182E0,1.5768585E0,1.4497523E0,1.8670559E-2,4.786152E0,0E0,0E0,0E0,0E0,0E0,0E0,7.036543E-1,1.1358829E0,0E0,2.2546043E0,0E0,0E0,0E0,3.8180606E0,4.7533226E0,0E0,0E0,4.8083174E-1,4.5088762E-1,0E0,0E0,4.4338646E0,0E0,0E0,0E0,0E0,0E0,0E0,0E0,0E0,0E0,0E0,0E0,0E0,0E0,0E0,0E0,0E0,0E0],"parents":[2147483647,0,0,1,1,2,2,3,3,4,4,5,5,6,6,7,7,8,8,9,9,10,10,11,11,12,12,13,13,15,15,16,16,17,17,18,18,19,19,20,20,21,21,22,22,23,23,30,30,31,31,33,33,37,37,38,38,41,41,42,42,45,45],"right_children":[2,4,6,8,10,12,14,16,18,20,22,24,26,28,-1,30,32,34,36,38,40,42,44,46,-1,-1,-1,-1,-1,-1,48,50,-1,52,-1,-1,-1,54,56,-1,-1,58,60,-1,-1,62,-1,-1,-1,-1,-1,-1,-1,-1,-1,-1,-1,-1,-1,-1,-1,-1,-1],"split_conditions":[4.29618E-1,2.58241E-2,3.277923E-2,1.2395711E-1,1.6415207E-2,3.8839217E-2,1.3223513E-2,4.1519973E-2,4.3254104E-2,2.9883752E-2,2.5068505E-2,3.3345364E-2,3.5442587E-2,4.3868314E-2,-1.675787E-1,1.8525822E-1,8.145762E-2,1.6982611E-2,3.686545E-2,5.1062964E-2,2.306891E-2,1.7981565E-2,2.5048202E-1,3.7318364E-2,2.5775623E-1,4.5601636E-1,-1.5633357E-1,4.508719E-1,4.4375446E-2,-2.1033881E-2,1.8846547E-2,2.1721212E-2,-2.446068E-1,1.0383546E-2,-1.9372864E-1,-3.7945607E-1,-2.172495E-3,4.136696E-2,3.0545665E-2,7.4423224E-2,-2.9611138E-1,3.2363296E-2,3.1289592E-2,-6.56763E-2,-2.4676724E-1,1.9595811E-2,1.8714029E-1,-3.685687E-1,-6.0258582E-2,-9.9341206E-2,1.7163925E-1,2.4330766E-1,-1.7602984E-2,1.8075554E-1,-3.6181265E-1,2.7481142E-1,-2.2952238E-1,1.908686E-1,-2.2677299E-2,2.960034E-2,-1.6780503E-1,1.636384E-1,-2.7206323E-1],"split_indices":[70674,72920,57980,57183,89962,16347,89962,59703,84166,68308,60452,781,57144,84125,0,83770,57183,39048,41338,52941,93848,21859,83770,27457,0,0,0,0,0,0,93149,54751,0,91382,0,0,0,23277,86250,0,0,84166,35811,0,0,91843,0,0,0,0,0,0,0,0,0,0,0,0,0,0,0,0,0],"split_type":[0,0,0,0,0,0,0,0,0,0,0,0,0,0,0,0,0,0,0,0,0,0,0,0,0,0,0,0,0,0,0,0,0,0,0,0,0,0,0,0,0,0,0,0,0,0,0,0,0,0,0,0,0,0,0,0,0,0,0,0,0,0,0],"sum_hessian":[2.0121065E2,1.1653236E2,8.467829E1,3.4091824E1,8.244054E1,8.117689E1,3.5014E0,1.2901587E1,2.1190235E1,7.3305115E1,9.135423E0,7.894405E1,2.2328393E0,2.2507257E0,1.2506744E0,7.674493E0,5.2270937E0,1.8927067E1,2.2631679E0,7.070449E1,2.6006172E0,6.8648844E0,2.2705386E0,7.782659E1,1.1174574E0,1.1652783E0,1.067561E0,1.1346482E0,1.1160775E0,1.0678272E0,6.6066656E0,4.157262E0,1.0698318E0,1.718272E1,1.7443463E0,1.1852077E0,1.0779601E0,2.785509E0,6.791898E1,1.2876271E0,1.3129901E0,3.687433E0,3.1774514E0,1.0544219E0,1.2161167E0,7.629671E1,1.5298901E0,5.3683634E0,1.2383024E0,1.3953558E0,2.7619061E0,1.3599249E1,3.583472E0,1.4907258E0,1.2947834E0,6.690901E1,1.0099763E0,2.670436E0,1.0169972E0,1.2004737E0,1.9769778E0,1.5394177E0,7.4757286E1],"tree_param":{"num_deleted":"0","num_feature":"95005","num_nodes":"63","size_leaf_vector":"1"}},{"base_weights":[-2.5799045E-2,-5.8909446E-1,4.2923E-1,-7.780136E-1,-7.092875E-2,6.291461E-1,-2.2043584E-1,2.2701356E-1,-8.2360464E-1,6.1759174E-1,-5.932821E-1,-7.746088E-2,7.6654285E-1,2.7248235E-2,-1.0327945E0,-8.742734E-1,1.5148431E-1,1.1145483E0,-4.7227538E-1,-7.633469E-1,1.632458E-1,1.4497133E-1,-6.586437E-1,-6.4497155E-1,8.3830047E-1,-5.404061E-1,3.367567E-1,1.00546375E-1,-1.4312878E0,-9.1788125E-1,1.7466424E-1,1.5077238E0,-5.577697E-2,-1.7991869E-1,-1.9586971E-2,6.945179E-2,-2.6532164E-1,-1.9154234E-1,6.189444E-1,-6.1622493E-2,-2.2781561E-1,7.035933E-3,-2.8694546E-1,9.2917216E-1,-1.8184684E-1,6.418332E-2,-7.086629E-1,5.476225E-1,-2.1009031E-1,-5.68729E-1,-2.6673222E-2,-2.8294745E-1,4.5163125E-2,5.988634E-1,6.759325E-2,-1.3869189E-1,1.5636946E-1,4.328926E-2,2.1573652E-1,2.8653333E-1,-6.1020084E-2,1.2946284E-1,-2.8077248E-1,-1.4824841E-2,-2.5181955E-1,-1.21756986E-1,2.1849556E-1],"categories":[],"categories_nodes":[],"categories_segments":[],"categories_sizes":[],"default_left":[1,1,1,0,1,0,1,0,1,1,1,1,0,1,0,1,0,1,0,0,0,1,0,0,1,0,1,0,0,1,0,0,0,0,0,0,0,0,0,0,0,0,0,1,1,0,1,0,0,0,0,0,0,0,0,0,0,0,0,0,0,0,0,0,0,0,0],"id":17,"left_children":[1,3,5,7,9,11,13,-1,15,17,19,21,23,25,27,29,-1,31,33,35,-1,37,39,41,43,45,47,-1,49,51,-1,53,-1,-1,-1,-1,-1,55,57,-1,-1,-1,-1,59,61,-1,63,65,-1,-1,-1,-1,-1,-1,-1,-1,-1,-1,-1,-1,-1,-1,-1,-1,-1,-1,-1],"loss_changes":[4.27863E1,7.2446785E0,1.2135654E1,4.4398537E0,7.9277835E0,6.9421787E0,4.550573E0,0E0,4.039646E0,5.7039585E0,2.826521E0,1.7048408E0,6.56168E0,3.3794284E0,3.3565197E0,3.827896E0,0E0,3.7896223E0,1.5257162E-1,1.5608025E0,0E0,1.685307E0,9.587526E-3,7.389275E-1,5.453388E0,1.0153934E0,3.0937114E0,0E0,2.497919E0,1.5121613E0,0E0,2.9203615E0,0E0,0E0,0E0,0E0,0E0,1.4970019E0,1.0139811E-1,0E0,0E0,0E0,0E0,1.7367592E0,2.947244E0,0E0,4.580791E-1,2.1667478E0,0E0,0E0,0E0,0E0,0E0,0E0,0E0,0E0,0E0,0E0,0E0,0E0,0E0,0E0,0E0,0E0,0E0,0E0,0E0],"parents":[2147483647,0,0,1,1,2,2,3,3,4,4,5,5,6,6,8,8,9,9,10,10,11,11,12,12,13,13,14,14,15,15,17,17,18,18,19,19,21,21,22,22,23,23,24,24,25,25,26,26,28,28,29,29,31,31,37,37,38,38,43,43,44,44,46,46,47,47],"right_children":[2,4,6,8,10,12,14,-1,16,18,20,22,24,26,28,30,-1,32,34,36,-1,38,40,42,44,46,48,-1,50,52,-1,54,-1,-1,-1,-1,-1,56,58,-1,-1,-1,-1,60,62,-1,64,66,-1,-1,-1,-1,-1,-1,-1,-1,-1,-1,-1,-1,-1,-1,-1,-1,-1,-1,-1],"split_conditions":[8.787322E-3,2.6696095E-2,1.2755551E-2,2.4457669E-2,1.5297918E-2,6.426774E-2,2.3279283E-2,2.2701356E-1,4.1593205E-2,1.6057482E-2,1.6714443E-2,4.4510223E-2,4.6741586E-2,1.4288255E-2,2.3624947E-2,7.8978196E-2,1.5148431E-1,6.1096486E-2,2.1692528E-1,1.781791E-2,1.632458E-1,4.3725327E-2,1.9506423E-2,6.520985E-2,4.3594856E-2,1.1030438E-1,3.7020974E-2,1.00546375E-1,5.619372E-2,4.5888253E-2,1.7466424E-1,4.61525E-2,-5.577697E-2,-1.7991869E-1,-1.9586971E-2,6.945179E-2,-2.6532164E-1,5.3187404E-2,3.046911E-2,-6.1622493E-2,-2.2781561E-1,7.035933E-3,-2.8694546E-1,3.3219684E-2,1.8975724E-2,6.418332E-2,2.2165813E-2,6.1066777E-2,-2.1009031E-1,-5.68729E-1,-2.6673222E-2,-2.8294745E-1,4.5163125E-2,5.988634E-1,6.759325E-2,-1.3869189E-1,1.5636946E-1,4.328926E-2,2.1573652E-1,2.8653333E-1,-6.1020084E-2,1.2946284E-1,-2.8077248E-1,-1.4824841E-2,-2.5181955E-1,-1.21756986E-1,2.1849556E-1],"split_indices":[70674,72920,43441,39692,84166,89962,1458,0,50970,94119,58399,58905,3112,72920,23277,79794,0,83739,83770,81095,0,72920,70674,91191,84166,25197,89022,0,92387,12801,0,72920,0,0,0,0,0,59685,91977,0,0,0,0,91789,92022,0,83739,39158,0,0,0,0,0,0,0,0,0,0,0,0,0,0,0,0,0,0,0],"split_type":[0,0,0,0,0,0,0,0,0,0,0,0,0,0,0,0,0,0,0,0,0,0,0,0,0,0,0,0,0,0,0,0,0,0,0,0,0,0,0,0,0,0,0,0,0,0,0,0,0,0,0,0,0,0,0,0,0,0,0,0,0,0,0,0,0,0,0],"sum_hessian":[1.6494159E2,7.3571E1,9.137059E1,5.3546787E1,2.002421E1,6.9894226E1,2.1476364E1,1.0948014E0,5.2451984E1,8.5595E0,1.146471E1,1.144921E1,5.8445015E1,1.7198948E1,4.2774153E0,5.0854416E1,1.5975691E0,5.863308E0,2.696192E0,1.025962E1,1.205091E0,8.823001E0,2.6262097E0,2.4409955E0,5.600402E1,5.8054476E0,1.1393501E1,1.0008023E0,3.276613E0,4.9735126E1,1.1192917E0,4.379787E0,1.483521E0,1.6925551E0,1.003637E0,1.0140296E0,9.245589E0,5.5081663E0,3.3148344E0,1.0302207E0,1.5959889E0,1.0699277E0,1.3710678E0,5.150526E1,4.498758E0,1.0092254E0,4.796222E0,9.860503E0,1.5329984E0,2.128045E0,1.1485678E0,4.870022E1,1.0349077E0,2.7685897E0,1.6111972E0,4.2464504E0,1.2617157E0,1.0029954E0,2.311839E0,5.0505245E1,1.0000159E0,2.71663E0,1.7821281E0,1.0217805E0,3.7744417E0,1.372445E0,8.488058E0],"tree_param":{"num_deleted":"0","num_feature":"95005","num_nodes":"67","size_leaf_vector":"1"}},{"base_weights":[-2.4956645E-2,3.4870073E-1,-5.677563E-1,-2.578821E-1,5.2517915E-1,1.3852067E-1,-7.110655E-1,2.3534802E-1,-7.68258E-1,6.343088E-1,-3.4483942E-1,-2.1716408E-1,5.100204E-1,3.3588707E-1,-8.012027E-1,4.65717E-1,-2.2688454E-1,-9.33152E-1,7.249239E-2,7.079795E-1,-3.5921407E-1,-6.9998604E-1,1.631787E-1,-2.9159877E-1,1.0432292E0,9.555831E-1,-1.7701854E-1,-8.5708857E-1,2.3927613E-1,6.9120634E-1,-1.499392E-1,6.253152E-3,-1.0810864E0,8.240163E-1,-2.126614E-2,1.386689E-1,-2.4707125E-1,-9.6615845E-1,7.594415E-2,-1.9851694E-1,1.191303E-1,-4.1124257E-3,1.333944E0,6.762902E-2,3.659904E-1,-8.979792E-1,1.2932144E-1,1.3413316E-2,2.440081E-1,-8.016764E-2,-3.798906E-1,-1.4813492E-1,2.6770476E-1,-7.5278E-2,1.2300087E-1,-1.8564066E-2,-3.9602777E-1,4.7145578E-1,1.282047E-1,1.0032853E-1,-2.8340927E-1],"categories":[],"categories_nodes":[],"categories_segments":[],"categories_sizes":[],"default_left":[0,0,0,1,1,1,0,1,1,1,1,0,1,1,1,1,0,0,0,1,1,1,0,1,0,0,0,1,0,0,0,0,1,1,1,0,0,0,0,0,0,0,0,0,0,0,0,0,0,0,0,0,0,0,0,0,0,0,0,0,0],"id":18,"left_children":[1,3,5,7,9,11,13,15,17,19,21,-1,23,25,27,29,-1,31,-1,33,35,37,-1,39,41,43,-1,45,-1,47,-1,-1,49,51,53,-1,-1,55,-1,-1,-1,-1,57,-1,-1,59,-1,-1,-1,-1,-1,-1,-1,-1,-1,-1,-1,-1,-1,-1,-1],"loss_changes":[2.8374304E1,9.009815E0,5.8700047E0,5.0528235E0,6.347082E0,3.718927E0,4.7579174E0,2.7754626E0,1.8484769E0,4.4779263E0,2.8559382E0,0E0,3.678428E0,3.1317496E0,4.623131E0,2.3542829E0,0E0,1.2339635E0,0E0,4.591858E0,2.1531987E0,1.776952E0,0E0,1.265809E0,1.5421009E0,3.1621242E-1,0E0,2.6564865E0,0E0,5.874841E-1,0E0,0E0,7.846813E-1,4.6425095E0,9.3443346E-1,0E0,0E0,1.4959302E0,0E0,0E0,0E0,0E0,1.6832972E-1,0E0,0E0,2.7388878E0,0E0,0E0,0E0,0E0,0E0,0E0,0E0,0E0,0E0,0E0,0E0,0E0,0E0,0E0,0E0],"parents":[2147483647,0,0,1,1,2,2,3,3,4,4,5,5,6,6,7,7,8,8,9,9,10,10,12,12,13,13,14,14,15,15,17,17,19,19,20,20,21,21,23,23,24,24,25,25,27,27,29,29,32,32,33,33,34,34,37,37,42,42,45,45],"right_children":[2,4,6,8,10,12,14,16,18,20,22,-1,24,26,28,30,-1,32,-1,34,36,38,-1,40,42,44,-1,46,-1,48,-1,-1,50,52,54,-1,-1,56,-1,-1,-1,-1,58,-1,-1,60,-1,-1,-1,-1,-1,-1,-1,-1,-1,-1,-1,-1,-1,-1,-1],"split_conditions":[4.29618E-1,3.335208E-2,3.5126537E-2,1.369276E-2,1.6416993E-2,1.4483964E-2,1.221169E-1,3.5818722E-2,4.3523565E-2,1.5165759E-2,4.889693E-2,-2.1716408E-1,9.86389E-3,2.1974014E-2,4.27903E-2,2.6099864E-2,-2.2688454E-1,3.716759E-2,7.249239E-2,1.5599188E-2,1.8039871E-2,2.314923E-2,1.631787E-1,2.5279416E-2,5.904833E-2,5.5221565E-2,-1.7701854E-1,4.117899E-2,2.3927613E-1,2.8460402E-2,-1.499392E-1,6.253152E-3,1.4019627E-2,8.232122E-3,1.8324558E-2,1.386689E-1,-2.4707125E-1,3.1794176E-2,7.594415E-2,-1.9851694E-1,1.191303E-1,-4.1124257E-3,2.5495144E-2,6.762902E-2,3.659904E-1,2.6013784E-2,1.2932144E-1,1.3413316E-2,2.440081E-1,-8.016764E-2,-3.798906E-1,-1.4813492E-1,2.6770476E-1,-7.5278E-2,1.2300087E-1,-1.8564066E-2,-3.9602777E-1,4.7145578E-1,1.282047E-1,1.0032853E-1,-2.8340927E-1],"split_indices":[70674,57183,91208,2327,2843,37087,16347,52812,35949,68308,72920,0,79768,41534,3497,89022,0,17955,0,89962,54751,5071,0,70149,21859,92188,0,58215,0,89962,0,0,3077,59685,34824,0,0,92735,0,0,0,0,84166,0,0,83464,0,0,0,0,0,0,0,0,0,0,0,0,0,0,0],"split_type":[0,0,0,0,0,0,0,0,0,0,0,0,0,0,0,0,0,0,0,0,0,0,0,0,0,0,0,0,0,0,0,0,0,0,0,0,0,0,0,0,0,0,0,0,0,0,0,0,0,0,0,0,0,0,0,0,0,0,0,0,0],"sum_hessian":[1.3792207E2,8.190035E1,5.6021725E1,1.835392E1,6.3546436E1,9.455445E0,4.656628E1,9.6077795E0,8.74614E0,5.670468E1,6.8417535E0,2.561239E0,6.894206E0,3.4751937E0,4.3091084E1,8.22691E0,1.3808701E0,7.583859E0,1.1622802E0,5.30578E1,3.6468809E0,5.0401487E0,1.8016046E0,2.9349563E0,3.9592497E0,2.0627103E0,1.4124835E0,4.208395E1,1.0071341E0,6.8996487E0,1.327261E0,1.1334693E0,6.45039E0,4.5662132E1,7.3956676E0,1.3186967E0,2.3281841E0,3.9292102E0,1.1109387E0,1.934486E0,1.0004703E0,1.0596348E0,2.8996148E0,1.0408496E0,1.0218606E0,4.108274E1,1.001211E0,1.3135824E0,5.5860662E0,1.6486758E0,4.801714E0,1.9440982E0,4.3718033E1,5.098675E0,2.2969928E0,1.4357638E0,2.4934464E0,1.7163985E0,1.1832163E0,1.2755622E0,3.980718E1],"tree_param":{"num_deleted":"0","num_feature":"95005","num_nodes":"61","size_leaf_vector":"1"}},{"base_weights":[-2.1461466E-2,-4.4945252E-1,3.8575888E-1,-1.8246385E-1,-8.408742E-1,-2.914801E-1,5.988654E-1,-4.7615817E-1,1.9248942E-1,-9.1331625E-1,6.888142E-2,1.9481552E-1,-5.683334E-1,7.419044E-1,-1.3931245E-1,2.3181437E-1,-5.8282995E-1,3.506931E-1,-2.3125634E-1,-9.5071507E-1,-8.587481E-2,5.2954453E-1,-1.13131434E-1,5.784184E-2,-6.90727E-1,-4.1633207E-1,8.243542E-1,3.1979695E-1,-8.3732903E-1,-6.948717E-1,1.925246E-1,5.257226E-1,-4.3696988E-1,-2.9424646E-1,-6.648327E-2,2.080207E-1,-1.9079599E-3,-2.54319E-1,-2.7666286E-1,1.4007633E-2,-2.0484686E-1,9.5744145E-1,1.8625672E-1,-1.5782514E-1,6.296841E-1,-3.6629313E-1,2.03683E-2,1.1460848E-1,-2.3719274E-1,2.1663724E-1,-3.3486933E-2,-1.8123372E-1,-1.2326852E-2,4.9281463E-2,-1.4896192E-1,3.0361596E-1,-9.4722E-2,-9.531859E-2,1.7514339E-1,2.1904115E-1,3.910193E-2],"categories":[],"categories_nodes":[],"categories_segments":[],"categories_sizes":[],"default_left":[1,1,0,1,1,0,1,0,1,1,0,1,0,0,1,0,1,1,0,1,0,1,0,0,1,1,1,1,0,0,0,1,0,0,0,0,0,0,0,0,0,1,1,0,1,0,0,0,0,0,0,0,0,0,0,0,0,0,0,0,0],"id":19,"left_children":[1,3,5,7,9,11,13,15,17,19,-1,21,23,25,27,-1,29,31,-1,33,-1,35,-1,-1,37,39,41,43,45,47,-1,49,51,-1,-1,-1,-1,-1,53,-1,-1,55,57,-1,59,-1,-1,-1,-1,-1,-1,-1,-1,-1,-1,-1,-1,-1,-1,-1,-1],"loss_changes":[2.0546139E1,5.8508625E0,8.897176E0,3.9936562E0,1.9949226E0,2.148862E0,4.9920025E0,3.1357617E0,2.7508428E0,2.3822784E-1,0E0,1.3936273E0,1.0556238E0,4.062025E0,2.9459689E0,0E0,3.0722213E0,2.2518206E0,0E0,2.2400475E-1,0E0,3.86397E-1,0E0,0E0,3.3419466E-1,4.33192E-1,2.9374523E0,1.8424212E0,1.3304319E0,2.1602478E0,0E0,1.6396062E0,1.8776292E-1,0E0,0E0,0E0,0E0,0E0,4.5867547E-1,0E0,0E0,2.4135628E0,1.7028818E0,0E0,1.3930643E-1,0E0,0E0,0E0,0E0,0E0,0E0,0E0,0E0,0E0,0E0,0E0,0E0,0E0,0E0,0E0,0E0],"parents":[2147483647,0,0,1,1,2,2,3,3,4,4,5,5,6,6,7,7,8,8,9,9,11,11,12,12,13,13,14,14,16,16,17,17,19,19,21,21,24,24,25,25,26,26,27,27,28,28,29,29,31,31,32,32,38,38,41,41,42,42,44,44],"right_children":[2,4,6,8,10,12,14,16,18,20,-1,22,24,26,28,-1,30,32,-1,34,-1,36,-1,-1,38,40,42,44,46,48,-1,50,52,-1,-1,-1,-1,-1,54,-1,-1,56,58,-1,60,-1,-1,-1,-1,-1,-1,-1,-1,-1,-1,-1,-1,-1,-1,-1,-1],"split_conditions":[2.6696095E-2,9.393416E-3,6.426774E-2,9.920077E-3,1.1367472E-2,2.1516707E-2,1.7600939E-2,4.410772E-2,4.5224518E-2,3.0187512E-2,6.888142E-2,1.7168315E-2,2.5728222E-2,2.4791043E-2,1.6832832E-2,2.3181437E-1,2.0388538E-2,3.2059174E-2,-2.3125634E-1,1.9538755E-2,-8.587481E-2,3.9925195E-2,-1.13131434E-1,5.784184E-2,2.1845007E-2,2.6402066E-2,1.0864473E-2,7.877893E-3,2.2302525E-2,6.9154575E-2,1.925246E-1,8.973151E-3,4.05531E-2,-2.9424646E-1,-6.648327E-2,2.080207E-1,-1.9079599E-3,-2.54319E-1,7.418584E-2,1.4007633E-2,-2.0484686E-1,4.1572616E-2,7.2119855E-3,-1.5782514E-1,2.1895517E-2,-3.6629313E-1,2.03683E-2,1.1460848E-1,-2.3719274E-1,2.1663724E-1,-3.3486933E-2,-1.8123372E-1,-1.2326852E-2,4.9281463E-2,-1.4896192E-1,3.0361596E-1,-9.4722E-2,-9.531859E-2,1.7514339E-1,2.1904115E-1,3.910193E-2],"split_indices":[72920,94119,89962,70674,1640,70674,58437,47045,52220,65429,0,73722,87783,80437,43441,0,47170,43441,0,8648,0,41338,0,0,70674,27507,94119,70674,11635,69300,0,89962,1426,0,0,0,0,0,65420,0,0,91296,23277,0,87148,0,0,0,0,0,0,0,0,0,0,0,0,0,0,0,0],"split_type":[0,0,0,0,0,0,0,0,0,0,0,0,0,0,0,0,0,0,0,0,0,0,0,0,0,0,0,0,0,0,0,0,0,0,0,0,0,0,0,0,0,0,0,0,0,0,0,0,0,0,0,0,0,0,0,0,0,0,0,0,0],"sum_hessian":[1.1589224E2,5.6454506E1,5.9437737E1,3.4433548E1,2.202096E1,1.4138553E1,4.5299183E1,1.9157724E1,1.5275823E1,2.0762709E1,1.2582512E0,5.2366486E0,8.901904E0,3.7942E1,7.357185E0,1.0162303E0,1.8141495E1,1.36672945E1,1.6085283E0,1.910702E1,1.6556885E0,3.3500507E0,1.8865978E0,1.153464E0,7.7484403E0,2.2523234E0,3.5689674E1,4.764958E0,2.592227E0,1.7017092E1,1.1244018E0,1.1454501E1,2.2127936E0,1.801778E1,1.0892397E0,2.3405225E0,1.0095282E0,4.8587728E0,2.8896675E0,1.1240648E0,1.1282586E0,2.911643E1,6.573246E0,1.0905328E0,3.6744254E0,1.5756348E0,1.0165921E0,1.1456594E0,1.5871432E1,8.654541E0,2.7999601E0,1.1860434E0,1.0267503E0,1.0456485E0,1.844019E0,2.8115543E1,1.0008869E0,2.9871664E0,3.5860796E0,2.674254E0,1.0001713E0],"tree_param":{"num_deleted":"0","num_feature":"95005","num_nodes":"61","size_leaf_vector":"1"}},{"base_weights":[-2.3241568E-2,-8.602879E-1,1.4222793E-1,-4.266191E-2,-8.985101E-1,4.1718164E-1,-2.2467434E-1,-2.775442E-1,-8.117265E-2,-1.0514477E-1,5.98074E-1,-5.0415903E-1,2.9062232E-1,3.5813326E-1,-5.41284E-1,1.566463E-2,7.657774E-1,-6.759038E-1,2.7794775E-1,-1.453126E-1,4.5824444E-1,6.1588645E-1,-1.3776574E-1,-6.7939276E-1,4.9204223E-2,3.440424E-1,-5.7870394E-1,8.835601E-1,-9.405587E-2,1.02906406E-1,-7.481032E-1,-1.19716644E-1,2.2448236E-1,6.02671E-1,-8.403092E-2,-8.483282E-3,2.3130114E-1,-2.4077113E-1,-1.6853807E-2,-1.8360789E-1,1.8929659E-1,-2.8030708E-2,-2.7820182E-1,2.9063925E-1,-5.5345785E-2,-1.4783725E-1,5.531138E-2,-2.5177565E-1,-4.3338954E-2,-1.7208649E-1,1.1775489E-1,2.1497066E-1,-3.5527494E-2],"categories":[],"categories_nodes":[],"categories_segments":[],"categories_sizes":[],"default_left":[0,0,1,0,1,1,1,0,0,0,0,1,0,1,1,1,1,0,1,0,1,0,0,0,0,0,1,1,1,0,1,1,0,1,0,0,0,0,0,0,0,0,0,0,0,0,0,0,0,0,0,0,0],"id":20,"left_children":[1,3,5,-1,7,9,11,-1,-1,13,15,17,19,21,23,25,27,29,31,-1,33,35,-1,37,-1,39,41,43,45,-1,47,49,-1,51,-1,-1,-1,-1,-1,-1,-1,-1,-1,-1,-1,-1,-1,-1,-1,-1,-1,-1,-1],"loss_changes":[1.4076732E1,3.3253384E-1,8.666458E0,0E0,1.2874603E-2,4.6856565E0,5.4827213E0,0E0,0E0,2.9086392E0,3.552064E0,3.4638133E0,1.9969847E0,1.7822219E0,8.243456E-1,1.9906328E0,2.9502678E0,1.7491722E0,1.0434215E0,0E0,1.421571E0,6.051338E-1,0E0,4.396789E-1,0E0,2.1802635E0,5.290694E-1,2.4543343E0,5.698683E-1,0E0,9.3850136E-1,1.0680975E0,0E0,9.179318E-1,0E0,0E0,0E0,0E0,0E0,0E0,0E0,0E0,0E0,0E0,0E0,0E0,0E0,0E0,0E0,0E0,0E0,0E0,0E0],"parents":[2147483647,0,0,1,1,2,2,4,4,5,5,6,6,9,9,10,10,11,11,12,12,13,13,14,14,15,15,16,16,17,17,18,18,20,20,21,21,23,23,25,25,26,26,27,27,28,28,30,30,31,31,33,33],"right_children":[2,4,6,-1,8,10,12,-1,-1,14,16,18,20,22,24,26,28,30,32,-1,34,36,-1,38,-1,40,42,44,46,-1,48,50,-1,52,-1,-1,-1,-1,-1,-1,-1,-1,-1,-1,-1,-1,-1,-1,-1,-1,-1,-1,-1],"split_conditions":[8.7648E-2,5.2968327E-2,1.7986557E-2,-4.266191E-2,4.8526153E-2,1.4079532E-2,4.2274795E-2,-2.775442E-1,-8.117265E-2,1.04603074E-1,3.9455853E-2,1.3377519E-2,5.7699494E-2,1.7088382E-2,2.0568212E-2,1.8079989E-2,1.887178E-2,1.702803E-1,1.2142876E-2,-1.453126E-1,7.0356037E-3,2.5682848E-2,-1.3776574E-1,1.1711825E0,4.9204223E-2,3.3552155E-2,2.901409E-2,1.5543767E-2,1.3922941E-2,1.02906406E-1,6.146658E-2,7.558154E-3,2.2448236E-1,2.1165196E-2,-8.403092E-2,-8.483282E-3,2.3130114E-1,-2.4077113E-1,-1.6853807E-2,-1.8360789E-1,1.8929659E-1,-2.8030708E-2,-2.7820182E-1,2.9063925E-1,-5.5345785E-2,-1.4783725E-1,5.531138E-2,-2.5177565E-1,-4.3338954E-2,-1.7208649E-1,1.1775489E-1,2.1497066E-1,-3.5527494E-2],"split_indices":[39048,64312,84166,0,72920,72920,72920,0,0,70674,57183,61785,41104,91382,79794,2327,89962,6486,47167,0,92234,43441,0,83770,0,12708,1458,36509,70674,0,59685,70674,0,89962,0,0,0,0,0,0,0,0,0,0,0,0,0,0,0,0,0,0,0],"split_type":[0,0,0,0,0,0,0,0,0,0,0,0,0,0,0,0,0,0,0,0,0,0,0,0,0,0,0,0,0,0,0,0,0,0,0,0,0,0,0,0,0,0,0,0,0,0,0,0,0,0,0,0,0],"sum_hessian":[9.9749504E1,1.5771005E1,8.397849E1,1.0356027E0,1.4735401E1,4.792605E1,3.6052444E1,1.3681701E1,1.053701E0,1.24359665E1,3.549008E1,2.3388626E1,1.266382E1,6.117093E0,6.318873E0,8.179002E0,2.731108E1,1.9288752E1,4.099874E0,1.9159192E0,1.0747902E1,4.8379307E0,1.2791623E0,5.3148665E0,1.0040066E0,5.539624E0,2.6393776E0,2.3996384E1,3.3146973E0,1.0281264E0,1.8260626E1,2.6254768E0,1.4743974E0,9.143181E0,1.6047207E0,1.097594E0,3.7403367E0,4.1974497E0,1.1174167E0,1.0172796E0,4.5223446E0,1.6335838E0,1.0057939E0,2.2308908E1,1.6874768E0,1.0463344E0,2.268363E0,1.552591E1,2.7347145E0,1.3284512E0,1.2970257E0,7.9014215E0,1.2417592E0],"tree_param":{"num_deleted":"0","num_feature":"95005","num_nodes":"53","size_leaf_vector":"1"}},{"base_weights":[-2.6266042E-2,2.47299E-1,-4.280461E-1,3.1625414E-1,-2.960031E-1,-1.799498E-1,-8.652167E-1,4.6750137E-1,-2.02046E-1,-3.5649905E-1,7.385091E-1,-3.4632046E-2,-2.7553177E-1,-1.9154233E-1,5.405463E-1,-4.2176387E-1,1.804405E-1,-4.8808068E-1,2.709789E-1,1.0199096E0,-1.5842346E-2,-1.410094E-1,6.6378826E-1,-6.9611675E-1,7.872792E-2,-6.274823E-1,2.1098065E-1,9.56032E-2,3.7536988E-1,1.2120114E-1,-1.739483E-1,2.1898857E-1,-1.5969476E-1,-2.745423E-1,-1.6127316E-2,-1.4086689E-1,1.3202737E-1,-2.2371952E-1,1.5477298E-1],"categories":[],"categories_nodes":[],"categories_segments":[],"categories_sizes":[],"default_left":[0,1,1,1,0,1,0,0,1,1,0,0,0,0,0,1,0,1,0,1,0,0,1,1,0,1,0,0,0,0,0,0,0,0,0,0,0,0,0],"id":21,"left_children":[1,3,5,7,-1,9,11,13,15,17,19,-1,-1,-1,21,23,-1,25,-1,27,-1,29,31,33,35,37,-1,-1,-1,-1,-1,-1,-1,-1,-1,-1,-1,-1,-1],"loss_changes":[9.885486E0,4.8700867E0,3.7931457E0,4.130855E0,0E0,4.234315E0,4.094963E-1,3.5895405E0,2.4304278E0,3.9575613E0,1.005585E0,0E0,0E0,0E0,3.30344E0,1.4649775E0,0E0,3.7392626E0,0E0,1.2067199E-1,0E0,1.8310561E0,2.9639244E0,8.983934E-1,1.1051081E0,2.8598647E0,0E0,0E0,0E0,0E0,0E0,0E0,0E0,0E0,0E0,0E0,0E0,0E0,0E0],"parents":[2147483647,0,0,1,1,2,2,3,3,5,5,6,6,7,7,8,8,9,9,10,10,14,14,15,15,17,17,19,19,21,21,22,22,23,23,24,24,25,25],"right_children":[2,4,6,8,-1,10,12,14,16,18,20,-1,-1,-1,22,24,-1,26,-1,28,-1,30,32,34,36,38,-1,-1,-1,-1,-1,-1,-1,-1,-1,-1,-1,-1,-1],"split_conditions":[1.04603074E-1,3.02282E-2,1.0578585E-2,1.7224059E-2,-2.960031E-1,3.62711E-2,2.2884661E-2,1.6525134E-1,3.303646E-2,3.6782086E-2,4.0488444E-2,-3.4632046E-2,-2.7553177E-1,-1.9154233E-1,4.3858003E-2,1.2832142E-2,1.804405E-1,2.1284064E-2,2.709789E-1,2.2378134E-2,-1.5842346E-2,5.563884E-2,1.5345735E-2,2.3926813E-2,3.2829907E-2,4.2833675E-2,2.1098065E-1,9.56032E-2,3.7536988E-1,1.2120114E-1,-1.739483E-1,2.1898857E-1,-1.5969476E-1,-2.745423E-1,-1.6127316E-2,-1.4086689E-1,1.3202737E-1,-2.2371952E-1,1.5477298E-1],"split_indices":[70674,6038,89962,58905,0,70149,23116,92592,70149,73620,23277,0,0,0,70044,37087,0,26770,0,91591,0,83739,28626,6580,89962,59323,0,0,0,0,0,0,0,0,0,0,0,0,0],"split_type":[0,0,0,0,0,0,0,0,0,0,0,0,0,0,0,0,0,0,0,0,0,0,0,0,0,0,0,0,0,0,0,0,0,0,0,0,0,0,0],"sum_hessian":[8.797612E1,5.2567986E1,3.5408134E1,5.0490276E1,2.0777087E0,2.348941E1,1.1918724E1,3.916066E1,1.1329617E1,2.0215391E1,3.2740192E0,1.0000099E0,1.0918715E1,1.9465805E0,3.721408E1,9.269899E0,2.0597172E0,1.885822E1,1.3571721E0,2.2020655E0,1.0719538E0,5.676667E0,3.1537415E1,5.7351933E0,3.5347064E0,1.7306465E1,1.5517542E0,1.1360068E0,1.0660588E0,2.56735E0,3.109317E0,3.0253384E1,1.2840307E0,3.9602249E0,1.7749684E0,1.2852452E0,2.2494612E0,1.5999581E1,1.3068837E0],"tree_param":{"num_deleted":"0","num_feature":"95005","num_nodes":"39","size_leaf_vector":"1"}},{"base_weights":[-2.3821171E-2,-7.788963E-1,1.0456683E-1,-2.685744E-1,-2.8976673E-1,-7.276124E-1,1.8939202E-1,-1.454424E-1,1.6889527E-2,-2.4719383E-1,-4.3747474E-2,-5.6686777E-1,2.9263163E-1,-7.081068E-1,-7.3350114E-3,4.5491886E-1,-2.6469597E-1,-5.396291E-2,-2.3879065E-1,1.344517E-1,7.61752E-1,2.8190377E-1,-4.37677E-1,-2.2614874E-1,1.1256491E-1,2.5332752E-1,-1.4385249E-1,-4.2355586E-2,1.5272953E-1,-1.6658382E-1,3.1140657E-2],"categories":[],"categories_nodes":[],"categories_segments":[],"categories_sizes":[],"default_left":[0,0,0,0,1,1,0,0,0,0,0,1,1,1,0,1,0,0,0,0,1,1,1,0,0,0,0,0,0,0,0],"id":22,"left_children":[1,3,5,-1,7,9,11,-1,-1,-1,-1,13,15,17,-1,19,21,-1,-1,23,25,27,29,-1,-1,-1,-1,-1,-1,-1,-1],"loss_changes":[7.6344576E0,3.9169645E-1,4.9005923E0,0E0,2.754863E-1,2.4134016E-1,5.008433E0,0E0,0E0,0E0,0E0,5.7952046E-1,5.11609E0,1.4203358E-1,0E0,4.140005E0,1.3609006E0,0E0,0E0,5.055893E0,2.6447573E0,4.3277854E-1,7.15685E-1,0E0,0E0,0E0,0E0,0E0,0E0,0E0,0E0],"parents":[2147483647,0,0,1,1,2,2,4,4,5,5,6,6,11,11,12,12,13,13,15,15,16,16,19,19,20,20,21,21,22,22],"right_children":[2,4,6,-1,8,10,12,-1,-1,-1,-1,14,16,18,-1,20,22,-1,-1,24,26,28,30,-1,-1,-1,-1,-1,-1,-1,-1],"split_conditions":[8.7648E-2,2.4752916E-1,2.00001E0,-2.685744E-1,7.190241E-3,8.394549E-3,9.365756E-1,-1.454424E-1,1.6889527E-2,-2.4719383E-1,-4.3747474E-2,5.1239256E-2,1.1097286E-2,1.3836155E-2,-7.3350114E-3,7.392811E-2,2.9466989E-2,-5.396291E-2,-2.3879065E-1,5.578773E-2,3.8005315E-2,8.787322E-3,1.4790709E-2,-2.2614874E-1,1.1256491E-1,2.5332752E-1,-1.4385249E-1,-4.2355586E-2,1.5272953E-1,-1.6658382E-1,3.1140657E-2],"split_indices":[39048,28626,91264,0,93848,74746,68308,0,0,0,0,59685,89962,54751,0,39474,35949,0,0,33110,73242,70674,76986,0,0,0,0,0,0,0,0],"split_type":[0,0,0,0,0,0,0,0,0,0,0,0,0,0,0,0,0,0,0,0,0,0,0,0,0,0,0,0,0,0,0],"sum_hessian":[7.691221E1,1.0440839E1,6.647137E1,7.7637496E0,2.6770892E0,5.447803E0,6.1023567E1,1.4557295E0,1.2213597E0,4.3165264E0,1.1312767E0,6.7904882E0,5.4233078E1,5.145261E0,1.6452276E0,4.2144768E1,1.208831E1,1.1683489E0,3.9769118E0,2.1317854E1,2.0826912E1,2.7545564E0,9.333755E0,4.0915275E0,1.7226326E1,1.9826117E1,1.0007969E0,1.0946449E0,1.6599114E0,7.6473594E0,1.6863949E0],"tree_param":{"num_deleted":"0","num_feature":"95005","num_nodes":"31","size_leaf_vector":"1"}},{"base_weights":[-3.3722557E-2,1.6796605E-1,-4.2891675E-1,-1.6719876E-1,4.4762796E-1,1.9906577E-1,-5.99702E-1,-6.4189893E-1,2.788353E-2,-5.786061E-3,6.10827E-1,-1.8320234E-1,2.1766165E-1,-6.785007E-1,1.2752086E-1,-4.8921544E-2,-2.2037663E-1,-2.9946354E-1,3.0504692E-1,2.2867964E-1,-3.534336E-1,-1.17532365E-1,6.918695E-1,8.380583E-2,-1.6788489E-1,-7.4416256E-1,6.934207E-2,-4.5488146E-1,1.0186284E-1,4.5470783E-1,-1.4508478E-1,1.5931852E-1,-6.5783364E-1,8.4772146E-1,1.2441402E-1,-8.368971E-1,-1.5478593E-1,7.071575E-2,-1.9274898E-1,-7.761399E-2,1.8165937E-1,-5.4410048E-2,-2.1981113E-1,-9.7525725E-3,2.7769285E-1,9.8100804E-2,-1.05417326E-1,-5.2112836E-2,-2.7852538E-1,6.2671736E-2,-1.477788E-1],"categories":[],"categories_nodes":[],"categories_segments":[],"categories_sizes":[],"default_left":[1,1,0,0,1,1,1,0,1,1,0,0,0,1,0,0,0,1,1,0,0,0,1,0,0,1,0,0,0,0,0,0,0,0,1,1,1,0,0,0,0,0,0,0,0,0,0,0,0,0,0],"id":23,"left_children":[1,3,5,7,9,11,13,15,17,19,21,23,-1,25,-1,-1,-1,27,29,-1,31,-1,33,-1,-1,35,-1,37,-1,39,-1,-1,41,43,45,47,49,-1,-1,-1,-1,-1,-1,-1,-1,-1,-1,-1,-1,-1,-1],"loss_changes":[5.762183E0,4.5726113E0,2.7367077E0,2.106585E0,1.9592943E0,1.3341272E0,1.8578281E0,1.7361927E-1,1.6286294E0,2.4017456E0,1.8509774E0,8.974001E-1,0E0,1.2729712E0,0E0,0E0,0E0,9.7608584E-1,1.3613358E0,0E0,2.013463E0,0E0,1.5175428E0,0E0,0E0,8.2304E-1,0E0,1.0690497E0,0E0,1.0867045E0,0E0,0E0,4.7081232E-2,1.0057993E0,6.090418E-1,7.389841E-1,5.447556E-1,0E0,0E0,0E0,0E0,0E0,0E0,0E0,0E0,0E0,0E0,0E0,0E0,0E0,0E0],"parents":[2147483647,0,0,1,1,2,2,3,3,4,4,5,5,6,6,7,7,8,8,9,9,10,10,11,11,13,13,17,17,18,18,20,20,22,22,25,25,27,27,29,29,32,32,33,33,34,34,35,35,36,36],"right_children":[2,4,6,8,10,12,14,16,18,20,22,24,-1,26,-1,-1,-1,28,30,-1,32,-1,34,-1,-1,36,-1,38,-1,40,-1,-1,42,44,46,48,50,-1,-1,-1,-1,-1,-1,-1,-1,-1,-1,-1,-1,-1,-1],"split_conditions":[1.1998691E-2,2.58241E-2,3.6771722E-2,1.0913465E-1,7.877893E-3,1.4032881E-2,3.382843E-2,1.6877748E-2,6.491183E-2,6.298648E-3,4.964507E-2,4.508445E-2,2.1766165E-1,1.062745E-2,1.2752086E-1,-4.8921544E-2,-2.2037663E-1,3.0254746E-2,1.3168248E-2,2.2867964E-1,2.6083393E-2,-1.17532365E-1,1.6415207E-2,8.380583E-2,-1.6788489E-1,5.492157E-2,6.934207E-2,2.2883989E-2,1.0186284E-1,2.0124424E-2,-1.4508478E-1,1.5931852E-1,2.2203736E-2,5.042222E-2,1.17115965E-2,2.1816421E-2,1.9087512E-2,7.071575E-2,-1.9274898E-1,-7.761399E-2,1.8165937E-1,-5.4410048E-2,-2.1981113E-1,-9.7525725E-3,2.7769285E-1,9.8100804E-2,-1.05417326E-1,-5.2112836E-2,-2.7852538E-1,6.2671736E-2,-1.477788E-1],"split_indices":[43441,72920,91208,60452,70674,6580,16347,70674,39474,41534,74561,70674,0,65640,0,0,0,70674,39048,0,68664,0,89962,0,0,72920,0,70674,0,57183,0,0,60392,91789,48144,83739,4786,0,0,0,0,0,0,0,0,0,0,0,0,0,0],"split_type":[0,0,0,0,0,0,0,0,0,0,0,0,0,0,0,0,0,0,0,0,0,0,0,0,0,0,0,0,0,0,0,0,0,0,0,0,0,0,0,0,0,0,0,0,0,0,0,0,0,0,0],"sum_hessian":[7.038895E1,4.698499E1,2.340396E1,2.1554651E1,2.543034E1,4.968615E0,1.8435345E1,5.610947E0,1.5943704E1,6.9859385E0,1.84444E1,3.2562764E0,1.7123386E0,1.743277E1,1.0025746E0,1.3575088E0,4.253438E0,7.2731757E0,8.670527E0,1.8051699E0,5.1807685E0,1.0926538E0,1.7351748E1,1.5766602E0,1.6796163E0,1.6428783E1,1.0039849E0,6.0820527E0,1.1911229E0,7.6435003E0,1.0270271E0,1.1358143E0,4.0449543E0,1.3225467E1,4.1262803E0,1.3832381E1,2.5964031E0,1.2445474E0,4.8375053E0,1.2090662E0,6.4344344E0,1.0140501E0,3.0309043E0,1.122954E0,1.2102512E1,3.113395E0,1.0128855E0,2.0288372E0,1.1803544E1,1.4340596E0,1.1623434E0],"tree_param":{"num_deleted":"0","num_feature":"95005","num_nodes":"51","size_leaf_vector":"1"}},{"base_weights":[-2.8741634E-2,-2.3636918E-1,5.8938373E-2,-3.0099317E-1,2.4029934E-1,-5.320942E-1,1.3265996E-1,-2.6632908E-1,4.0513167E-1,-6.657505E-1,8.650419E-2,-8.678643E-2,1.6514099E-1,1.1537288E-1,-4.0625143E-1,-4.350923E-1,5.1951534E-1,-8.3899283E-1,-8.213361E-3,1.2615316E-1,-1.3172232E-1,-6.870464E-2,-6.2413925E-1,8.664764E-3,-1.7786404E-1,-3.9411297E-1,6.1324227E-1,-2.7879995E-1,-1.6242282E-2,7.504664E-2,-7.253657E-2,1.11892395E-1,-1.08241074E-1,9.04797E-2,-1.5706226E-1,-4.6354538E-4,-2.3076954E-1,3.4429654E-2,-2.103789E-1,2.0826668E-1,-1.6346565E-1],"categories":[],"categories_nodes":[],"categories_segments":[],"categories_sizes":[],"default_left":[0,0,0,1,1,1,1,0,0,1,0,1,0,0,0,1,0,1,1,1,0,1,1,0,0,1,1,0,0,0,0,0,0,0,0,0,0,0,0,0,0],"id":24,"left_children":[1,-1,3,5,7,9,11,13,15,17,-1,19,-1,-1,21,23,25,27,29,31,-1,33,35,-1,-1,37,39,-1,-1,-1,-1,-1,-1,-1,-1,-1,-1,-1,-1,-1,-1],"loss_changes":[4.2962055E0,0E0,3.8692553E0,2.068179E0,3.3842297E0,1.6397233E0,7.5650895E-1,1.0883536E0,3.1091666E0,1.3208003E0,0E0,5.0037616E-1,0E0,0E0,6.124245E-1,3.201213E-1,2.5417624E0,6.0305786E-1,2.6810557E-1,6.723011E-1,0E0,9.3585527E-1,4.7677207E-1,0E0,0E0,5.6625193E-1,2.6996603E0,0E0,0E0,0E0,0E0,0E0,0E0,0E0,0E0,0E0,0E0,0E0,0E0,0E0,0E0],"parents":[2147483647,0,0,2,2,3,3,4,4,5,5,6,6,7,7,8,8,9,9,11,11,14,14,15,15,16,16,17,17,18,18,19,19,21,21,22,22,25,25,26,26],"right_children":[2,-1,4,6,8,10,12,14,16,18,-1,20,-1,-1,22,24,26,28,30,32,-1,34,36,-1,-1,38,40,-1,-1,-1,-1,-1,-1,-1,-1,-1,-1,-1,-1,-1,-1],"split_conditions":[2.4752916E-1,-2.3636918E-1,1.3946532E-1,3.8311414E-2,2.2966798E-2,4.6070877E-2,1.0752663E-2,1.9974036E-2,1.0135863E-1,2.2383258E-2,8.650419E-2,6.265972E-2,1.6514099E-1,1.1537288E-1,4.29618E-1,1.7652232E-2,9.83321E-2,1.5328212E-2,4.035725E-2,1.8638575E-2,-1.3172232E-1,2.1641841E-2,1.5727345E-2,8.664764E-3,-1.7786404E-1,1.435663E-2,3.503584E-2,-2.7879995E-1,-1.6242282E-2,7.504664E-2,-7.253657E-2,1.11892395E-1,-1.08241074E-1,9.04797E-2,-1.5706226E-1,-4.6354538E-4,-2.3076954E-1,3.4429654E-2,-2.103789E-1,2.0826668E-1,-1.6346565E-1],"split_indices":[28626,0,57183,72920,59685,35811,12106,93848,68308,70674,0,91191,0,0,70674,84166,8729,1482,83739,89022,0,28647,84889,0,0,92117,6038,0,0,0,0,0,0,0,0,0,0,0,0,0,0],"split_type":[0,0,0,0,0,0,0,0,0,0,0,0,0,0,0,0,0,0,0,0,0,0,0,0,0,0,0,0,0,0,0,0,0,0,0,0,0,0,0,0,0],"sum_hessian":[6.2846027E1,5.680114E0,5.7165913E1,1.8932524E1,3.823339E1,1.2202566E1,6.7299566E0,9.234497E0,2.8998892E1,1.0655284E1,1.5472827E0,4.9318714E0,1.7980851E0,1.324509E0,7.9099874E0,3.1387665E0,2.5860126E1,8.214923E0,2.440361E0,3.4739528E0,1.4579189E0,3.6189363E0,4.2910514E0,1.0038629E0,2.134904E0,2.1079009E0,2.3752226E1,7.2018657E0,1.0130568E0,1.1249807E0,1.3153803E0,2.4607527E0,1.0132E0,2.1805522E0,1.438384E0,1.0020199E0,3.2890315E0,1.0291628E0,1.0787381E0,2.2574324E1,1.1779019E0],"tree_param":{"num_deleted":"0","num_feature":"95005","num_nodes":"41","size_leaf_vector":"1"}},{"base_weights":[-3.9911985E-2,1.608317E-1,-3.3733535E-1,2.5264516E-1,-5.016561E-1,-4.4033486E-1,2.1488738E-1,3.7192804E-1,-3.7220612E-1,-2.2013102E-1,2.115696E-2,-6.9367737E-1,-6.798264E-2,5.584911E-1,-2.0236239E-1,-1.842218E-1,1.4344827E-2,7.487283E-2,-8.0308235E-1,2.9441938E-1,-4.439318E-1,6.2972957E-1,-1.21096045E-1,1.4336424E-1,-7.3367375E-1,-2.6341116E-1,3.236522E-3,-1.5280351E-1,5.7687515E-1,-1.7849183E-1,5.8037145E-3,6.695433E-2,2.3823665E-1,1.2981321E-1,-1.3123365E-1,-3.0591092E-1,-2.3757892E-2,-1.5902476E-2,2.3302467E-1],"categories":[],"categories_nodes":[],"categories_segments":[],"categories_sizes":[],"default_left":[0,1,1,1,0,0,0,1,0,0,0,0,0,1,1,0,0,0,1,0,0,0,0,1,0,0,0,0,0,0,0,0,0,0,0,0,0,0,0],"id":25,"left_children":[1,3,5,7,9,11,-1,13,15,-1,-1,17,19,21,23,-1,-1,-1,25,27,29,31,-1,33,35,-1,-1,-1,37,-1,-1,-1,-1,-1,-1,-1,-1,-1,-1],"loss_changes":[3.5356555E0,2.2854195E0,2.9003603E0,2.5112298E0,6.6994965E-1,2.058114E0,0E0,3.0307093E0,5.9855676E-1,0E0,0E0,1.5597935E0,1.5129013E0,1.6812811E0,1.4665759E0,0E0,0E0,0E0,7.439904E-1,1.6030538E0,3.8784146E-1,1.1444693E0,0E0,1.0844152E0,4.9676692E-1,0E0,0E0,0E0,6.374413E-1,0E0,0E0,0E0,0E0,0E0,0E0,0E0,0E0,0E0,0E0],"parents":[2147483647,0,0,1,1,2,2,3,3,4,4,5,5,7,7,8,8,11,11,12,12,13,13,14,14,18,18,19,19,20,20,21,21,23,23,24,24,28,28],"right_children":[2,4,6,8,10,12,-1,14,16,-1,-1,18,20,22,24,-1,-1,-1,26,28,30,32,-1,34,36,-1,-1,-1,38,-1,-1,-1,-1,-1,-1,-1,-1,-1,-1],"split_conditions":[1.04603074E-1,5.9455454E-2,3.0760342E-2,2.0108972E-2,3.4004882E-2,8.899651E-2,2.1488738E-1,1.7600939E-2,2.1860128E-2,-2.2013102E-1,2.115696E-2,4.3132264E-2,3.612217E-2,2.4503315E-2,1.6039794E-2,-1.842218E-1,1.4344827E-2,7.487283E-2,2.8375672E-2,1.035139E-1,1.929222E-1,2.565348E-2,-1.21096045E-1,2.049747E-2,5.474918E-2,-2.6341116E-1,3.236522E-3,-1.5280351E-1,4.521204E-1,-1.7849183E-1,5.8037145E-3,6.695433E-2,2.3823665E-1,1.2981321E-1,-1.3123365E-1,-3.0591092E-1,-2.3757892E-2,-1.5902476E-2,2.3302467E-1],"split_indices":[70674,58905,91591,70040,92387,39474,0,58437,7215,0,0,83464,2568,16043,52220,0,0,0,75021,83916,84889,93149,0,91726,3180,0,0,0,2327,0,0,0,0,0,0,0,0,0,0],"split_type":[0,0,0,0,0,0,0,0,0,0,0,0,0,0,0,0,0,0,0,0,0,0,0,0,0,0,0,0,0,0,0,0,0,0,0,0,0,0,0],"sum_hessian":[5.7309204E1,3.448981E1,2.2819393E1,3.0835056E1,3.6547556E0,2.131753E1,1.5018635E0,2.6232162E1,4.602894E0,2.399106E0,1.2556494E0,1.2172556E1,9.144974E0,1.982074E1,6.411424E0,2.6277332E0,1.9751605E0,1.1319594E0,1.1040596E1,4.7668037E0,4.3781705E0,1.8776031E1,1.0447083E0,4.3263917E0,2.0850327E0,1.0037348E1,1.0032486E0,1.0306584E0,3.736145E0,3.0873446E0,1.2908258E0,6.0850654E0,1.2690966E1,3.0579677E0,1.2684239E0,1.0626059E0,1.0224267E0,1.0769691E0,2.6591759E0],"tree_param":{"num_deleted":"0","num_feature":"95005","num_nodes":"39","size_leaf_vector":"1"}},{"base_weights":[-4.4056684E-2,1.7933026E-1,-3.0222765E-1,-2.4589802E-1,3.3671483E-1,-4.2273253E-1,2.9456964E-1,8.291998E-2,-1.6157846E-1,-4.4321445E-1,4.4069365E-1,1.0879829E-1,-4.9809587E-1,-6.4369746E-2,5.148045E-1,-7.424795E-2,3.3511028E-1,-1.04902385E-4,-1.996795E-1,5.3629893E-1,-2.5840685E-1,-5.80616E-1,1.4801235E-1,1.8691464E-1,3.492772E-2,1.5316465E-1,-5.4079336E-3,-1.0548861E-1,6.143244E-1,-1.4335237E-1,2.7331024E-2,-6.493914E-1,5.390356E-2,1.10169664E-1,-4.360887E-2,2.830798E-2,2.3766212E-1,-2.1775602E-1,-1.6203068E-2],"categories":[],"categories_nodes":[],"categories_segments":[],"categories_sizes":[],"default_left":[1,0,1,0,0,0,0,1,0,1,1,0,1,0,0,0,1,0,0,0,1,1,1,0,0,0,0,0,1,0,0,1,0,0,0,0,0,0,0],"id":26,"left_children":[1,3,5,7,9,11,13,15,-1,17,19,-1,21,-1,23,-1,25,-1,-1,27,29,31,33,-1,-1,-1,-1,-1,35,-1,-1,37,-1,-1,-1,-1,-1,-1,-1],"loss_changes":[3.085981E0,2.010949E0,1.9050801E0,8.493363E-1,1.9348419E0,1.4242065E0,6.429279E-1,4.8324236E-1,0E0,2.9737842E-1,1.4371216E0,0E0,1.1305032E0,0E0,8.308929E-2,0E0,2.043159E-1,0E0,0E0,1.4226203E0,2.745455E-1,1.0357184E0,2.4733216E-1,0E0,0E0,0E0,0E0,0E0,1.4396629E0,0E0,0E0,7.0441484E-1,0E0,0E0,0E0,0E0,0E0,0E0,0E0],"parents":[2147483647,0,0,1,1,2,2,3,3,4,4,5,5,6,6,7,7,9,9,10,10,12,12,14,14,16,16,19,19,20,20,21,21,22,22,28,28,31,31],"right_children":[2,4,6,8,10,12,14,16,-1,18,20,-1,22,-1,24,-1,26,-1,-1,28,30,32,34,-1,-1,-1,-1,-1,36,-1,-1,38,-1,-1,-1,-1,-1,-1,-1],"split_conditions":[1.7986557E-2,8.021636E-1,6.544052E-2,5.2392997E-2,6.614304E-2,5.647238E-2,2.8860454E-2,9.920077E-3,-1.6157846E-1,2.2247162E-2,2.5466247E-2,1.0879829E-1,1.1438761E-2,-6.4369746E-2,4.9896874E-2,-7.424795E-2,1.9348085E-2,-1.04902385E-4,-1.996795E-1,4.3857008E-1,5.8133613E-2,4.918481E-2,1.798014E-2,1.8691464E-1,3.492772E-2,1.5316465E-1,-5.4079336E-3,-1.0548861E-1,1.4288255E-2,-1.4335237E-1,2.7331024E-2,3.4748632E-2,5.390356E-2,1.10169664E-1,-4.360887E-2,2.830798E-2,2.3766212E-1,-2.1775602E-1,-1.6203068E-2],"split_indices":[84166,89962,59685,83739,84929,1640,72920,70674,0,91591,43441,0,53551,0,70674,0,92048,0,0,26175,39474,70149,7421,0,0,0,0,0,72920,0,0,93848,0,0,0,0,0,0,0],"split_type":[0,0,0,0,0,0,0,0,0,0,0,0,0,0,0,0,0,0,0,0,0,0,0,0,0,0,0,0,0,0,0,0,0,0,0,0,0,0,0],"sum_hessian":[5.156938E1,2.7810898E1,2.3758486E1,7.360793E0,2.0450104E1,2.0009787E1,3.748698E0,3.8040245E0,3.5567687E0,2.021864E0,1.842824E1,1.4181781E0,1.859161E1,1.1396993E0,2.6089988E0,1.6547023E0,2.1493223E0,1.010695E0,1.011169E0,1.641613E1,2.01211E0,1.6575918E1,2.0156918E0,1.608098E0,1.0009006E0,1.1381396E0,1.0111825E0,1.0427759E0,1.5373354E1,1.0105062E0,1.0016037E0,1.5334633E1,1.2412848E0,1.0095631E0,1.0061287E0,4.3088183E0,1.1064536E1,1.3395208E1,1.9394239E0],"tree_param":{"num_deleted":"0","num_feature":"95005","num_nodes":"39","size_leaf_vector":"1"}},{"base_weights":[-3.478682E-2,1.0979781E-1,-3.6223078E-1,-5.718487E-1,1.9177873E-1,-5.7986444E-1,2.3700106E-1,-3.2370392E-2,-2.0853092E-1,5.745625E-1,4.199972E-2,-6.554129E-1,2.800056E-2,3.9667058E-1,-4.277488E-2,-1.6332937E-2,7.385417E-1,1.7438778E-1,-4.817568E-1,-2.4896826E-1,-3.0444804E-1,2.6538158E-2,1.4429273E-1,1.6163029E-2,8.423766E-1,-1.1071337E-1,4.3142855E-1,-1.1584897E-2,-1.894537E-1,-4.7100046E-1,4.28313E-2,5.1014926E-2,2.8253773E-1,1.5070407E-1,-8.356059E-2,1.6560736E-1,-9.4608136E-2,-3.0283479E-2,-1.8036789E-1],"categories":[],"categories_nodes":[],"categories_segments":[],"categories_sizes":[],"default_left":[1,0,1,0,0,1,1,0,0,1,1,1,0,1,0,0,0,1,1,0,1,0,0,0,0,0,1,0,0,0,0,0,0,0,0,0,0,0,0],"id":27,"left_children":[1,3,5,7,9,11,13,-1,-1,15,17,19,-1,21,-1,-1,23,25,27,-1,29,-1,-1,-1,31,33,35,-1,-1,37,-1,-1,-1,-1,-1,-1,-1,-1,-1],"loss_changes":[2.3653972E0,2.0567899E0,2.1300182E0,1.5326476E-1,1.8020155E0,6.459763E-1,3.4630084E-1,0E0,0E0,9.56038E-1,1.7462415E0,3.8805723E-1,0E0,5.1760495E-2,0E0,0E0,4.6020103E-1,1.5038787E0,3.1423688E-1,0E0,4.4367695E-1,0E0,0E0,0E0,2.4803066E-1,1.1910443E0,1.1335245E0,0E0,0E0,1.2797576E-1,0E0,0E0,0E0,0E0,0E0,0E0,0E0,0E0,0E0],"parents":[2147483647,0,0,1,1,2,2,3,3,4,4,5,5,6,6,9,9,10,10,11,11,13,13,16,16,17,17,18,18,20,20,24,24,25,25,26,26,29,29],"right_children":[2,4,6,8,10,12,14,-1,-1,16,18,20,-1,22,-1,-1,24,26,28,-1,30,-1,-1,-1,32,34,36,-1,-1,38,-1,-1,-1,-1,-1,-1,-1,-1,-1],"split_conditions":[1.039897E-2,7.6939183E-1,1.2214239E-2,5.8307797E-2,3.116332E-2,1.23298764E-1,2.040356E-2,-3.2370392E-2,-2.0853092E-1,9.490103E-3,2.0939803E-2,1.0703063E-2,2.800056E-2,1.1781516E-2,-4.277488E-2,-1.6332937E-2,3.20376E-2,1.2189242E-2,1.4859467E-2,-2.4896826E-1,1.2427868E-2,2.6538158E-2,1.4429273E-1,1.6163029E-2,1.507078E-1,3.3762105E-2,3.515133E-2,-1.1584897E-2,-1.894537E-1,4.982249E-2,4.28313E-2,5.1014926E-2,2.8253773E-1,1.5070407E-1,-8.356059E-2,1.6560736E-1,-9.4608136E-2,-3.0283479E-2,-1.8036789E-1],"split_indices":[94119,3754,91208,41587,83739,39474,